#include <stdint.h>
#include "hls_half.h"

typedef half quant_t;

void template_filter(volatile float* in_data, volatile float* out_data, int w, int h, int parameter_1) {
	#pragma HLS INTERFACE s_axilite port=return
	#pragma HLS INTERFACE s_axilite port=parameter_1
	#pragma HLS INTERFACE s_axilite port=w
	#pragma HLS INTERFACE s_axilite port=h

	#pragma HLS INTERFACE m_axi depth=900 port=in_data offset=slave // This will NOT work for resolutions higher than 30x30
	#pragma HLS INTERFACE m_axi depth=20 port=out_data offset=slave

	quant_t input[30][30][1];
	quant_t dense_2[1][20];

	for (int i = 0; i < 30; i++) {
		for (int j = 0; j < 30; j++) {
			input[i][j][0] = *(in_data++);
		}
	}


	const quant_t conv2D_1_kernels[6][3][3][1] = {{{{ 0.22381108 },
	   {-0.29261965 },
	   {-0.2661797  }},

	  {{-0.087646745},
	   { 1.2625207  },
	   { 0.7322538  }},

	  {{-0.29847005 },
	   {-0.9013102  },
	   {-0.39091668 }}},


	 {{{ 0.028393432},
	   { 0.029059542},
	   {-0.04945678 }},

	  {{-0.24063097 },
	   {-0.40525627 },
	   { 0.13201526 }},

	  {{-0.7233055  },
	   { 0.45510665 },
	   { 0.88700783 }}},


	 {{{-0.9723675  },
	   { 0.080062464},
	   { 0.454567   }},

	  {{-0.81948596 },
	   {-0.08137137 },
	   { 0.60910845 }},

	  {{ 0.30691904 },
	   {-1.118802   },
	   {-0.31866327 }}},


	 {{{ 0.30124003 },
	   { 0.10611848 },
	   {-0.114885345}},

	  {{ 0.1862327  },
	   { 1.3429632  },
	   {-1.0862843  }},

	  {{-0.18589474 },
	   {-0.051643196},
	   {-0.15925005 }}},


	 {{{-0.1259416  },
	   {-0.34371457 },
	   { 0.45250764 }},

	  {{-0.72019106 },
	   { 1.3293928  },
	   {-0.53298545 }},

	  {{-0.3134744  },
	   { 1.0578666  },
	   {-0.8050754  }}},


	 {{{ 0.19221903 },
	   {-0.1738507  },
	   { 0.026745189}},

	  {{ 0.16643529 },
	   { 0.9597894  },
	   { 0.08342486 }},

	  {{ 0.039658062},
	   { 0.5020725  },
	   { 0.43200052 }}}};

	        const quant_t conv2D_1_biases[6] = {-0.086807705, -0.037952933,  0.2799083  , -0.12472332 , -0.09125816 ,
	 -1.1869503  };

			const quant_t conv2D_2_kernels[24][3][3][6] = {{{{ 2.47966126e-02,  1.58080041e-01,  3.76789957e-01,  2.58689262e-02,
	    -2.00387448e-01, -1.28163114e-01},
	   { 4.77383286e-02, -1.83912739e-02, -6.40860647e-02,  5.10987900e-02,
	    -5.17208993e-01,  9.04652923e-02},
	   { 1.40790433e-01,  2.20574617e-01, -8.15883934e-01,  1.59626812e-01,
	    -3.80962938e-01,  1.93239316e-01}},

	  {{-6.52154759e-02,  1.52406842e-01, -9.34263244e-02,  2.92939693e-01,
	    -1.46063820e-01,  5.34117483e-02},
	   { 7.14391544e-02, -6.08488433e-02,  7.22562969e-02, -3.24045897e-01,
	    -4.63367343e-01, -6.97527453e-02},
	   { 2.68916368e-01,  2.04940423e-01, -4.38731432e-01, -7.68620102e-03,
	    -3.11004132e-01,  1.73520952e-01}},

	  {{-2.03230921e-02,  2.61330932e-01, -1.97659478e-01, -2.12103054e-02,
	     2.93739259e-01,  1.51499033e-01},
	   { 1.89434066e-02, -3.92952412e-02,  6.36807233e-02,  2.54661322e-01,
	     4.23106849e-02,  9.81618613e-02},
	   { 8.42899978e-02, -9.25273597e-02,  1.03441320e-01, -6.65777206e-01,
	    -1.97486356e-01, -1.79124817e-01}}},


	 {{{ 7.04741031e-02, -5.71702719e-02, -3.26905586e-02, -4.27795529e-01,
	    -2.66130239e-01,  5.90799339e-02},
	   {-2.25179672e-01,  5.31252146e-01,  8.91340971e-02,  2.11613119e-01,
	     2.26401612e-01,  3.18725377e-01},
	   {-1.17317304e-01, -1.57811463e-01, -2.29292452e-01,  1.38375401e-01,
	    -2.27254391e-01,  3.35770577e-01}},

	  {{-2.51362205e-01, -5.74908853e-02,  8.69293064e-02, -3.23516726e-01,
	     5.31198978e-01,  5.15755713e-02},
	   {-6.44790769e-01,  3.07178974e-01,  7.04914704e-02,  6.46915287e-02,
	     3.50153893e-01, -4.69937138e-02},
	   {-5.19802809e-01, -3.43454957e-01,  1.93938419e-01,  1.05109565e-01,
	     4.33793198e-03,  1.38955109e-03}},

	  {{-9.85599980e-02,  1.58568993e-01, -5.72917014e-02, -3.05942506e-01,
	     1.26158800e-02,  8.78823698e-02},
	   {-3.35618883e-01, -3.57408822e-02, -4.45333838e-01,  6.30066872e-01,
	     2.86895722e-01,  5.26166558e-01},
	   {-8.81260857e-02, -4.95492965e-01, -2.47155949e-01, -6.36813641e-02,
	     2.24139184e-01,  8.87540057e-02}}},


	 {{{-4.54868078e-02,  4.04328518e-02, -2.91068759e-02,  2.04639554e-01,
	    -3.27318311e-01, -7.06882998e-02},
	   {-4.50568721e-02,  2.82681257e-01,  2.89166540e-01, -3.60091597e-01,
	    -1.86832547e-01, -1.48371220e-01},
	   { 3.29724252e-02, -1.92499027e-01,  2.20781878e-01,  1.27799019e-01,
	    -5.95694259e-02,  2.67538816e-01}},

	  {{ 1.45869508e-01,  2.94737518e-01, -1.08864129e-01, -1.13616973e-01,
	    -1.14428297e-01,  3.22890401e-01},
	   { 2.57348895e-01, -2.73480058e-01, -1.50515735e-01, -1.23937435e-01,
	    -4.28504311e-02, -1.99814320e-01},
	   { 1.31437004e-01, -1.47054285e-01, -2.03765719e-03,  1.77894551e-02,
	    -3.60204756e-01, -5.52330971e-01}},

	  {{ 2.45399982e-01,  3.74610610e-02, -5.45916378e-01, -2.00925827e-01,
	     3.36497300e-03,  4.78671491e-01},
	   { 2.07009241e-01, -8.72606635e-02, -5.75134873e-01,  2.97736883e-01,
	    -5.25493026e-01,  3.75562936e-01},
	   { 2.19241545e-01, -7.89356977e-02, -6.24185920e-01, -3.17302018e-01,
	    -2.67146140e-01, -9.63576287e-02}}},


	 {{{-2.35357851e-01, -1.00983474e-02,  4.85951034e-03, -4.00151983e-02,
	    -1.78332835e-01, -1.53536797e-01},
	   {-9.75569636e-02, -6.28199577e-02,  2.68056393e-01, -2.26230621e-01,
	    -2.41117761e-01, -1.64233208e-01},
	   {-1.45351604e-01, -1.64224301e-02,  1.32789820e-01, -2.64517814e-01,
	     7.93419108e-02, -7.08831325e-02}},

	  {{-3.65946963e-02, -5.17634675e-02,  8.88712481e-02, -1.96965933e-01,
	    -1.95032105e-01, -1.19015492e-01},
	   {-2.94482946e-01,  1.43099546e-01,  1.43743018e-02, -1.47269174e-01,
	     1.02438211e-01, -1.85723841e-01},
	   {-3.41836393e-01,  1.10997349e-01, -2.30698317e-01, -3.17163318e-01,
	     2.21920349e-02, -1.36723951e-01}},

	  {{-1.72637120e-01, -1.17052101e-01,  2.54202902e-01, -1.76941708e-01,
	    -8.31875950e-04, -2.68990487e-01},
	   {-2.64383465e-01,  4.39784229e-01, -7.49274939e-02, -8.96969363e-02,
	     2.15879194e-02, -1.02186181e-01},
	   {-3.21964741e-01,  4.57956016e-01, -7.81539753e-02, -2.21940503e-01,
	     2.59519339e-01, -2.11419612e-01}}},


	 {{{ 1.37647197e-01,  1.15516305e-01, -2.30161428e-01, -6.30332530e-02,
	    -9.12881084e-03,  1.27084121e-01},
	   { 1.92395136e-01, -9.04292911e-02, -5.49326539e-01, -1.15155904e-02,
	    -3.22294116e-01,  1.14831179e-01},
	   { 4.45218891e-01, -1.66975066e-01, -4.55974132e-01, -4.83795434e-01,
	    -1.39792860e-01, -7.11814966e-03}},

	  {{-3.15719396e-01,  2.08398193e-01, -4.45078939e-01,  6.52652085e-02,
	     3.25856179e-01,  2.44352773e-01},
	   { 2.03063473e-01,  1.80297360e-01,  4.05437453e-03,  2.86253363e-01,
	     4.52167243e-01,  3.58292669e-01},
	   { 2.59295464e-01,  9.55199525e-02,  1.96376607e-01, -2.60413736e-01,
	    -2.26028174e-01,  5.47134466e-02}},

	  {{-2.57112950e-01,  2.29445219e-01, -7.91925788e-02,  3.22865546e-01,
	     3.20396632e-01, -2.54074812e-01},
	   {-7.29911029e-02,  2.97487043e-02,  2.66836281e-03,  1.94861576e-01,
	     1.24384560e-01,  2.49511287e-01},
	   { 3.80094945e-02,  2.67966837e-01,  8.86708573e-02, -4.93387654e-02,
	     2.69687206e-01,  8.94379467e-02}}},


	 {{{-2.78873533e-01, -2.49485433e-01,  3.31508040e-01, -1.72912061e-01,
	     1.88097637e-02,  3.39660980e-02},
	   { 5.01538739e-02, -8.12647521e-01,  3.87143999e-01,  4.24322754e-01,
	     7.34364092e-02, -1.14182621e-01},
	   { 1.60921752e-01,  1.91678584e-01,  4.21145782e-02, -2.67938912e-01,
	    -3.90506893e-01, -2.81982064e-01}},

	  {{-6.32489398e-02, -3.99613619e-01,  6.24762654e-01, -3.68029065e-02,
	    -3.61209303e-01, -1.06340550e-01},
	   { 1.22668013e-01,  1.34606525e-01, -1.74866155e-01,  1.00789607e-01,
	    -1.03591569e-01,  1.43298253e-01},
	   { 2.75795013e-01, -1.84610352e-01, -5.80330938e-02, -7.55364418e-01,
	    -2.95998365e-01, -3.01345289e-01}},

	  {{-4.07769270e-02,  2.07348451e-01,  1.73085332e-01, -2.92318821e-01,
	    -1.61546469e-01,  4.12497371e-02},
	   { 2.09423199e-01,  2.10519627e-01,  2.29838684e-01,  2.70161927e-01,
	     4.87479597e-01,  3.73525098e-02},
	   { 6.26390502e-02, -1.43750310e-01,  1.04061384e-02,  4.89423156e-01,
	     2.24892557e-01,  8.35111365e-02}}},


	 {{{-1.92868561e-01, -4.68511611e-01,  2.45843202e-01,  1.73838079e-01,
	     1.51410282e-01, -1.35064363e-01},
	   { 2.87662670e-02, -1.00550222e+00,  1.27182379e-01,  3.63089710e-01,
	     1.81270212e-01,  3.83844167e-01},
	   {-3.05924620e-02, -3.27675752e-02, -6.23911386e-03,  3.52207363e-01,
	     4.05452959e-02,  4.31840271e-01}},

	  {{-4.47899669e-01, -1.70954391e-01,  1.69416249e-01,  2.96741366e-01,
	     2.09385693e-01, -6.37082802e-03},
	   {-7.64897048e-01, -4.43514511e-02,  1.01734005e-01, -6.41086221e-01,
	    -1.30885109e-01, -3.22012275e-01},
	   {-2.69508176e-02,  5.62313020e-01, -1.74684957e-01, -5.40104389e-01,
	     9.03793499e-02, -9.05342549e-02}},

	  {{-4.33955304e-02,  2.60410011e-01, -1.24226674e-01, -2.97557451e-02,
	     1.05933391e-01,  3.98455620e-01},
	   {-3.22746336e-02,  1.62268609e-01, -2.55364895e-01,  2.35282496e-01,
	     1.59784839e-01,  3.67431343e-01},
	   { 3.85491312e-01, -7.82528892e-02, -2.94906795e-01,  1.49048448e-01,
	     2.16722354e-01, -2.10603669e-01}}},


	 {{{ 1.58342242e-01, -2.67494380e-01, -9.00059491e-02, -2.33904690e-01,
	    -2.46712983e-01, -2.10994259e-01},
	   { 1.02184184e-01,  1.60993319e-02,  3.78449410e-01, -3.73736024e-01,
	    -6.48402810e-01, -7.24078417e-02},
	   { 1.94111824e-01,  6.16891325e-01, -3.91011834e-01,  9.33704376e-02,
	    -1.23280637e-01,  2.56164879e-01}},

	  {{ 3.20004702e-01, -1.47562772e-01, -1.84953704e-01,  5.66739976e-01,
	     1.53255358e-03,  2.57853031e-01},
	   {-2.88747877e-01, -2.89109737e-01,  3.03763270e-01, -5.18550694e-01,
	    -7.52061367e-01, -3.37081492e-01},
	   { 2.91457087e-01,  4.04708892e-01, -2.32805237e-01,  1.22450002e-01,
	    -7.21580535e-02,  3.77192378e-01}},

	  {{ 2.85639733e-01,  9.81116854e-03, -3.58487010e-01,  2.79979140e-01,
	     1.18520617e-01,  2.66395770e-02},
	   {-1.16500013e-01, -4.09416333e-02, -5.34716070e-01, -3.18646580e-01,
	    -4.54786897e-01,  9.03167576e-02},
	   {-1.16540603e-01, -1.80182323e-01,  2.17283666e-01,  2.38453839e-02,
	     9.23145488e-02, -1.07397579e-01}}},


	 {{{ 1.68334514e-01,  2.59950221e-01,  2.71641687e-02,  1.29533008e-01,
	     3.30771990e-02,  2.62111545e-01},
	   {-1.48485169e-01, -3.16155761e-01,  5.45253195e-02, -2.22376227e-01,
	     5.66454604e-02, -7.90671557e-02},
	   {-1.14114627e-01, -1.42434984e-01,  3.71322185e-01, -1.27487436e-01,
	     1.26119241e-01, -8.04462805e-02}},

	  {{-1.34081766e-01, -5.79241924e-02, -1.79179981e-02,  6.55410513e-02,
	    -2.41232276e-01, -9.36554149e-02},
	   { 1.05310053e-01, -1.62418976e-01, -1.73633143e-01,  2.07312122e-01,
	    -4.77423072e-01,  4.15260553e-01},
	   { 3.27686034e-02, -8.44580308e-02, -5.28729379e-01,  1.06885687e-01,
	    -1.12264015e-01,  2.32059345e-01}},

	  {{-1.69346645e-01,  3.29221815e-01,  6.04451746e-02,  6.60710856e-02,
	     9.48141366e-02, -2.76912693e-02},
	   { 1.31007135e-01,  5.28584607e-02,  1.84777245e-01, -3.70243818e-01,
	     4.49439064e-02,  3.35461080e-01},
	   { 2.75585532e-01, -1.42661273e-01, -4.82473165e-01,  1.34225234e-01,
	    -3.16953242e-01,  6.90768063e-01}}},


	 {{{-1.44708812e-01,  8.28960687e-02,  1.14894761e-02, -1.56872943e-02,
	    -1.42891437e-01, -3.20872217e-01},
	   {-3.18531334e-01,  3.31730366e-01, -1.41093522e-01, -4.53685164e-01,
	    -3.36013697e-02, -1.85028568e-01},
	   {-2.08061606e-01,  7.40598798e-01, -3.78982842e-01, -3.56558144e-01,
	     5.19190766e-02,  2.01526791e-01}},

	  {{-6.51541725e-02, -8.20103101e-03,  6.13669641e-02, -3.13478649e-01,
	     1.20157845e-01, -2.60492712e-02},
	   {-2.31033310e-01,  1.14699811e-01, -2.17609823e-01, -1.92533702e-01,
	     2.67183334e-01,  1.54706940e-01},
	   {-1.03208445e-01,  1.94930471e-02, -1.67874489e-02, -1.26063988e-01,
	     1.54651567e-01,  3.38998616e-01}},

	  {{ 8.45691711e-02, -2.03807026e-01,  2.64401287e-01, -4.97331582e-02,
	     1.97045252e-01,  1.84332848e-01},
	   {-1.93707496e-01, -7.57492125e-01,  2.16236353e-01,  2.13691801e-01,
	     7.67445192e-02,  1.05753511e-01},
	   {-5.46438023e-02, -6.62802279e-01,  3.68291140e-01,  1.27753720e-01,
	     4.85759266e-02, -3.80040169e-01}}},


	 {{{-2.29428448e-02, -3.07497323e-01,  2.26331115e-01,  4.89607304e-02,
	    -2.85361618e-01,  3.46767336e-01},
	   {-1.47168010e-01, -3.27822059e-01,  3.45648617e-01,  1.24062896e-01,
	    -1.03589900e-01, -2.51855791e-01},
	   { 1.71174064e-01, -7.05245584e-02,  3.52534235e-01, -3.29705834e-01,
	    -3.68307322e-01, -3.59077007e-01}},

	  {{ 5.15577905e-02, -1.60634309e-01, -1.89266756e-01,  1.79172471e-01,
	    -2.60189235e-01,  1.70114100e-01},
	   {-1.79421067e-01, -1.37165114e-01, -1.48006409e-01,  3.18984956e-01,
	    -2.90562034e-01, -3.03877413e-01},
	   {-1.32772580e-01, -4.69587415e-01, -3.20980549e-02, -2.21791133e-01,
	     3.97373028e-02, -3.34918946e-01}},

	  {{ 1.25232399e-01, -4.27373886e-01, -2.45424628e-01,  2.82785803e-01,
	     3.89575064e-02, -6.30790889e-02},
	   { 3.66350524e-02, -2.24277183e-01, -5.91482967e-02,  2.93381751e-01,
	     1.07657634e-01, -6.70493320e-02},
	   {-4.74528521e-01, -4.35069263e-01,  3.65517139e-01,  3.33799452e-01,
	     2.81491280e-02, -5.09414896e-02}}},


	 {{{-1.35668576e-01, -2.54739020e-02, -9.46305022e-02, -9.27171037e-02,
	    -1.06730007e-01,  9.31916665e-03},
	   { 7.70771056e-02, -9.91780162e-02, -1.02017887e-01, -9.45762917e-02,
	     1.05239697e-01,  2.83900239e-02},
	   { 1.28209263e-01, -1.66415334e-01,  4.11327407e-02,  1.85895652e-01,
	     5.33202328e-02, -1.67897806e-01}},

	  {{-4.62155752e-02, -1.45174429e-01, -5.90226166e-02, -1.00348942e-01,
	     1.96489487e-02,  4.71563786e-02},
	   {-6.98713064e-02, -6.78363219e-02,  1.16592728e-01, -1.10852353e-01,
	    -8.44994709e-02, -1.31636217e-01},
	   {-4.05217968e-02,  3.64572369e-02, -1.33132011e-01, -9.82144848e-02,
	    -2.34965272e-02, -7.99150169e-02}},

	  {{ 1.00893326e-01, -1.31392300e-01, -4.34306003e-02,  2.30593160e-02,
	     1.19527392e-02, -4.11946997e-02},
	   {-1.05456952e-02, -1.04431652e-01,  4.21436131e-02, -1.18114233e-01,
	    -2.88726557e-02, -1.17813863e-01},
	   {-1.05635159e-01, -1.45705223e-01,  9.34430286e-02,  5.71913794e-02,
	     1.53092314e-02,  2.14948766e-02}}},


	 {{{-7.14365020e-02, -4.47752737e-02,  4.17075753e-01, -2.38232464e-01,
	    -1.97802216e-01, -2.19856083e-01},
	   { 1.52152488e-02, -4.83255237e-01,  2.59374499e-01,  1.46393120e-01,
	     6.98256865e-02,  9.25343782e-02},
	   {-1.25150025e-01, -1.29199728e-01,  6.79528415e-02,  2.64463991e-01,
	    -9.38535854e-02, -2.38682300e-01}},

	  {{-2.76729107e-01, -5.72709620e-01,  2.84897685e-01, -3.44151855e-01,
	    -2.05722496e-01, -6.16930462e-02},
	   {-1.21974073e-01,  1.39852837e-02,  2.45479029e-02, -6.23984754e-01,
	    -3.75073910e-01, -1.21840864e-01},
	   {-3.46359402e-01,  4.28215921e-01,  5.61341271e-02,  2.11150318e-01,
	    -3.54600310e-01,  3.50589782e-01}},

	  {{-1.06391329e-02,  7.34027028e-02, -1.50705814e-01,  2.30925962e-01,
	    -4.57486883e-02,  5.61845228e-02},
	   {-3.78682584e-01,  1.19175259e-02, -1.87253177e-01, -2.66568780e-01,
	     6.60360157e-02,  2.00907558e-01},
	   {-8.47956911e-02, -4.48084444e-01,  3.23772639e-01,  8.78971368e-02,
	     4.34592925e-02,  2.08242729e-01}}},


	 {{{ 3.75926532e-02,  5.27940574e-04, -1.55553088e-01, -1.42674804e-01,
	    -1.07598543e-01, -2.31890202e-01},
	   {-6.09887354e-02,  2.53981259e-02, -2.36330956e-01, -3.59151691e-01,
	     4.05838564e-02, -5.63122593e-02},
	   { 3.24484169e-01,  3.38849276e-02, -8.52220133e-03,  2.14837179e-01,
	    -1.43927008e-01,  2.83074230e-01}},

	  {{-1.27996236e-01, -9.34777558e-02,  3.23439427e-02, -2.38727912e-01,
	     2.27135256e-01, -1.05616048e-01},
	   {-1.66620106e-01,  1.51170462e-01,  2.18642667e-01, -1.19318673e-02,
	    -1.46183893e-01,  1.94734503e-02},
	   { 8.14591125e-02, -9.50200483e-03,  1.36221677e-01, -9.23002139e-02,
	    -1.86857069e-03, -1.65883079e-01}},

	  {{ 1.00659020e-01, -1.82391241e-01,  2.77185291e-02,  2.77938694e-02,
	     7.03365132e-02, -1.10917777e-01},
	   { 9.33450982e-02, -2.34025195e-01, -9.94078349e-04, -1.21756896e-01,
	     8.94069076e-02, -1.36374757e-01},
	   {-3.22596841e-02, -3.62552293e-02,  2.43109971e-01,  7.97808468e-02,
	    -4.46214601e-02, -1.27642602e-01}}},


	 {{{-4.25402969e-01,  1.02812566e-01,  3.75899039e-02, -1.86940670e-01,
	    -8.33366662e-02, -2.63653398e-01},
	   {-2.28269473e-01,  1.19383290e-01,  5.52630797e-02, -9.89439189e-02,
	     3.06563258e-01,  2.14687400e-02},
	   { 1.64818734e-01, -2.56774247e-01, -3.94595116e-02,  1.99038416e-01,
	     1.17979787e-01,  5.79772115e-01}},

	  {{-3.36718649e-01, -8.27817470e-02,  7.17741325e-02,  2.38929316e-01,
	     1.48274437e-01,  5.48676848e-02},
	   {-1.78571656e-01, -4.16823626e-01,  1.00862868e-01, -7.66119584e-02,
	    -8.56047776e-03,  4.79798764e-03},
	   { 1.45877555e-01, -9.22655314e-02,  3.97674479e-02, -1.37095422e-01,
	    -3.44152570e-01, -8.99626315e-02}},

	  {{-1.51123747e-01,  3.36639047e-01,  2.30977669e-01,  5.64175904e-01,
	    -3.44269238e-02,  3.66365671e-01},
	   {-3.28641772e-01, -1.98791586e-02, -4.47010547e-01, -7.16210008e-02,
	    -1.53113857e-01, -1.22209921e-01},
	   {-2.12769606e-03, -1.27375871e-01,  2.64822356e-02, -8.19291949e-01,
	    -3.86043757e-01, -3.10877949e-01}}},


	 {{{ 1.67453334e-01, -3.04214209e-01, -1.98299900e-01, -5.14050663e-01,
	    -3.56019825e-01,  4.43372503e-02},
	   { 1.76909402e-01, -1.40606761e-01, -3.86144161e-01,  2.38124192e-01,
	     2.95695305e-01, -1.84775498e-02},
	   {-5.04753590e-02,  2.29497299e-01, -6.06094360e-01, -3.29342186e-02,
	    -1.67225689e-01,  2.72503912e-01}},

	  {{ 4.70551196e-03, -4.83694524e-01, -7.29120076e-02, -5.03684103e-01,
	    -3.03887278e-01, -4.17161107e-01},
	   { 2.87377179e-01, -1.30118772e-01,  1.02981202e-01, -4.11756225e-02,
	     1.13567851e-01,  2.49021649e-01},
	   {-1.64985687e-01,  3.54124218e-01, -7.69439247e-03,  3.46784562e-01,
	     6.82049319e-02,  9.48282331e-02}},

	  {{-1.56894997e-01, -6.67881742e-02, -3.58735681e-01,  5.25188679e-03,
	    -5.48965894e-02,  2.16558911e-02},
	   { 1.38116762e-01,  4.72279601e-02, -5.28323613e-02, -6.50857747e-01,
	    -4.61116396e-02, -3.45572919e-01},
	   {-4.61702086e-02,  3.82272825e-02,  2.12314874e-01,  1.41732246e-01,
	     6.56156465e-02,  1.40834689e-01}}},


	 {{{-1.25269126e-02, -1.88115999e-01,  6.17753193e-02,  8.47672001e-02,
	    -7.31817707e-02,  1.52288005e-01},
	   {-3.05674493e-01,  3.01808566e-01, -1.06642693e-01,  3.02208215e-01,
	     3.12398255e-01,  2.81589359e-01},
	   {-3.28758895e-01, -4.84985173e-01, -6.35400265e-02, -2.56757230e-01,
	     2.66252190e-01,  8.17445442e-02}},

	  {{ 1.94302216e-01, -1.00135460e-01, -1.19362929e-04, -3.49161536e-01,
	     1.06946863e-01, -4.18091677e-02},
	   {-1.85210004e-01,  6.45110682e-02,  1.75770700e-01,  4.46530253e-01,
	     1.08908102e-01,  3.51334393e-01},
	   {-5.14849365e-01, -2.22573057e-01,  1.09814607e-01,  7.49223977e-02,
	     2.49936264e-02, -1.14490077e-01}},

	  {{ 1.94321170e-01,  2.83543542e-02,  4.68595445e-01, -2.01952875e-01,
	     2.21345916e-01, -3.01013291e-01},
	   {-1.68181047e-01, -3.85846831e-02,  2.17014670e-01, -5.61336875e-02,
	    -7.79800564e-02, -4.31368917e-01},
	   {-1.61980644e-01, -3.80925566e-01, -5.39206527e-02, -3.08183849e-01,
	    -9.92647186e-02,  1.77642956e-01}}},


	 {{{ 5.36219962e-02, -2.14013574e-03, -6.26753420e-02, -1.25431523e-01,
	     1.06867783e-01,  4.36772972e-01},
	   { 1.07205391e-01,  3.10530394e-01, -3.36928725e-01,  4.33999360e-01,
	    -5.27403317e-02,  3.74797076e-01},
	   {-4.53828685e-02,  5.31500131e-02, -1.80749729e-01,  3.27705383e-01,
	     2.41992660e-02,  2.16340140e-01}},

	  {{ 2.19712213e-01, -3.60583186e-01, -2.68431485e-01,  1.25978649e-01,
	    -1.03365555e-01,  2.91091055e-01},
	   {-2.92768896e-01, -4.91391659e-01, -1.14888422e-01,  2.10656449e-01,
	     3.64147663e-01,  2.12162852e-01},
	   {-3.89366031e-01,  3.93036038e-01,  1.61425844e-02,  1.68568064e-02,
	     2.71118879e-01, -5.63811101e-02}},

	  {{ 3.51162463e-01, -3.67862076e-01, -3.53814334e-01,  1.23779356e-01,
	    -1.91187695e-01,  2.28896022e-01},
	   {-1.71371490e-01,  6.51491955e-02, -7.55827799e-02, -1.58312023e-01,
	    -1.01413846e-01,  1.56806067e-01},
	   {-3.05635631e-01,  1.11415394e-01,  3.35703522e-01,  1.04803272e-01,
	     1.38634294e-01, -1.38107747e-01}}},


	 {{{-1.20777175e-01,  1.29761994e-01,  2.34532207e-02, -1.60707623e-01,
	     9.91160572e-02, -3.46783199e-03},
	   {-3.82167995e-01, -1.55469984e-01,  1.48429394e-01, -4.79767799e-01,
	    -1.57203019e-01,  2.66144108e-02},
	   {-4.95251000e-01,  3.21460664e-01,  1.70709059e-01,  2.46721402e-01,
	     4.54008341e-01,  3.48694384e-01}},

	  {{ 3.03937346e-01, -4.06338908e-02,  9.69680771e-02,  1.17537808e-02,
	     1.57574713e-01,  3.77314359e-01},
	   {-1.85906470e-01, -6.69086933e-01, -6.40279800e-02, -5.80363393e-01,
	    -2.18681037e-01,  1.43597707e-01},
	   {-1.49694294e-01,  9.80131775e-02,  1.13383196e-01,  2.46357411e-01,
	     1.42112821e-01,  2.04936177e-01}},

	  {{ 3.31986606e-01, -2.19667833e-02, -2.80904341e-02,  2.02030942e-01,
	     6.70640171e-02, -2.10963979e-01},
	   {-5.01583993e-01, -5.14338873e-02, -2.99671412e-01,  1.14879102e-01,
	     4.43113670e-02, -2.89550200e-02},
	   {-5.44115663e-01,  2.25877892e-02,  1.66997463e-01,  1.98662300e-02,
	     2.08938643e-01, -3.82548124e-01}}},


	 {{{-1.15176409e-01,  1.80196524e-01,  1.24053456e-01, -2.70482540e-01,
	    -4.38409925e-01, -4.36360270e-01},
	   {-8.57180357e-03, -4.52539362e-02, -1.79549143e-01, -1.42138585e-01,
	    -1.71608642e-01, -3.19488287e-01},
	   {-2.20130906e-02, -5.28196022e-02, -1.50322944e-01, -2.91670829e-01,
	     8.03789720e-02, -3.90785307e-01}},

	  {{-6.16496354e-02,  4.97769192e-02, -1.35138899e-01, -5.71646571e-01,
	     3.58530432e-01, -7.10711032e-02},
	   {-3.20561558e-01,  4.56810266e-01, -1.41043797e-01,  1.55205071e-01,
	    -6.35361150e-02,  1.57906666e-01},
	   {-1.06323175e-01,  4.10774834e-02, -1.18143283e-01,  1.17957607e-01,
	    -1.26234129e-01,  2.63264865e-01}},

	  {{-1.43439397e-01,  1.39400318e-01, -3.46797734e-01,  1.15999989e-01,
	     4.77298319e-01,  2.08531708e-01},
	   { 8.62291232e-02,  2.11748853e-01, -2.67733466e-02, -3.91702764e-02,
	     4.21098135e-02,  5.11745512e-01},
	   {-1.25332698e-01,  4.95953023e-01, -1.39097586e-01,  1.49115846e-01,
	     1.12197302e-01,  5.21644771e-01}}},


	 {{{ 1.26945421e-01, -1.61098838e-02, -2.16653004e-01, -5.61801344e-02,
	    -2.12900758e-01,  9.57614854e-02},
	   {-2.96056181e-01,  3.08073074e-01, -3.81069630e-02,  1.04402669e-01,
	     3.95474397e-02,  4.94679093e-01},
	   { 2.09019303e-01,  3.15598518e-01,  1.08609535e-01,  4.16266114e-01,
	     4.25602719e-02,  5.13666630e-01}},

	  {{-2.96754688e-01, -3.68736327e-01,  1.66412920e-01, -4.40058678e-01,
	     2.75239527e-01, -1.02181405e-01},
	   {-7.82336518e-02, -3.36932659e-01,  4.31891531e-01, -2.12231621e-01,
	     2.14753523e-01,  1.02775216e-01},
	   { 1.88311134e-02, -7.64323026e-02,  1.97510347e-01,  3.64909947e-01,
	    -1.34025827e-01,  1.59148857e-01}},

	  {{ 1.58648655e-01,  2.53398389e-01, -2.40238920e-01, -2.62288243e-01,
	     2.40660518e-01, -2.38359394e-03},
	   {-5.60811937e-01, -5.91863841e-02,  4.18433957e-02, -1.15368485e-01,
	     8.94391090e-02, -3.81262600e-01},
	   {-3.29973936e-01,  1.32275978e-02, -6.37324825e-02, -2.25939304e-01,
	     1.71919689e-01, -4.62263405e-01}}},


	 {{{-4.56458554e-02,  5.22813201e-02, -3.95845585e-02,  3.25529248e-01,
	    -3.96492600e-01, -4.25499320e-01},
	   { 7.10024312e-02,  4.27286357e-01, -5.60510298e-03, -5.07587910e-01,
	     2.63753198e-02, -1.22418664e-02},
	   { 2.31814936e-01,  4.51797545e-02,  3.17043871e-01, -6.38913661e-02,
	    -3.37635428e-02,  1.19403966e-01}},

	  {{-1.12153009e-01, -1.47785336e-01, -1.48810267e-01, -1.55965507e-01,
	     2.36876622e-01, -4.52673197e-01},
	   {-6.41044602e-02,  1.39366120e-01,  3.15627337e-01, -1.20947093e-01,
	    -1.62619933e-01, -5.16003489e-01},
	   { 3.25894207e-01, -4.82936800e-01,  6.46994710e-02,  1.83509946e-01,
	    -3.05670202e-01,  4.35019508e-02}},

	  {{-4.31262612e-01,  1.46612808e-01, -5.21202534e-02, -2.88597941e-01,
	     2.02687755e-01, -9.83108059e-02},
	   {-1.93109512e-01, -2.04739556e-01,  1.53505489e-01, -2.98228800e-01,
	     1.60987258e-01, -2.62021005e-01},
	   { 2.80224115e-01, -6.48322403e-01, -1.32886797e-01, -5.03140688e-01,
	    -1.29073054e-01, -1.57181963e-01}}},


	 {{{ 1.53709039e-01, -2.50888020e-01, -1.90884508e-02,  1.05242342e-01,
	     4.74771172e-01, -5.65933436e-03},
	   {-3.74765515e-01,  3.20802927e-01,  8.44629332e-02, -4.85145926e-01,
	     8.20793509e-02, -5.85122872e-03},
	   {-5.06472923e-02,  2.75638789e-01,  4.76496629e-02,  3.97883922e-01,
	     1.63480580e-01,  3.86926442e-01}},

	  {{ 4.87608239e-02, -1.25607967e-01, -2.67215401e-01,  3.49363476e-01,
	     5.63248396e-01, -1.52507618e-01},
	   {-4.34149295e-01,  2.06522927e-01,  1.65213481e-01, -8.51653278e-01,
	    -4.60245848e-01, -6.90366253e-02},
	   {-1.85867593e-01,  3.83347690e-01,  6.26316816e-02,  2.63597220e-01,
	     5.58249429e-02,  4.77304608e-01}},

	  {{ 1.39356643e-01, -1.62771061e-01, -1.82791263e-01,  3.98405880e-01,
	    -2.52573472e-02, -4.22531247e-01},
	   {-6.12742722e-01, -2.44031549e-01,  3.94434512e-01, -7.89113104e-01,
	    -1.30954266e-01, -4.77043092e-01},
	   {-3.58086675e-01,  6.97548464e-02,  3.73827279e-01,  2.84842461e-01,
	    -8.35877433e-02,  2.48915702e-01}}},


	 {{{ 1.90289319e-01,  2.00969502e-01,  2.95619071e-01, -1.76927850e-01,
	     1.69782355e-01, -2.20699146e-01},
	   { 1.08284466e-01, -1.32781893e-01,  2.58518904e-01,  1.81032687e-01,
	     4.69480343e-02, -1.33785054e-01},
	   { 9.47721824e-02,  7.20954686e-02, -3.46692950e-02,  1.16772860e-01,
	    -1.39577776e-01, -6.42693937e-02}},

	  {{ 1.68288901e-01, -3.10533673e-01, -2.68459886e-01,  2.58074313e-01,
	     2.40472499e-02, -3.20288427e-02},
	   {-1.75535247e-01, -1.89781412e-01, -2.46528313e-02,  2.04108104e-01,
	     9.45089385e-02, -3.81799862e-02},
	   { 3.49892080e-02, -6.41406178e-01, -1.36350811e-01,  9.75394920e-02,
	    -7.86176994e-02, -3.51319969e-01}},

	  {{ 3.30561459e-01, -5.21151781e-01, -1.08974978e-01,  1.73087046e-01,
	     2.02392805e-02, -3.72896373e-01},
	   {-3.92905399e-02,  5.49181141e-02, -1.76276937e-01, -1.98688060e-01,
	    -2.72492558e-01, -2.63274252e-01},
	   {-2.03711122e-01, -4.31417763e-01,  6.62612617e-02, -2.79506683e-01,
	    -4.76196483e-02,  4.35247598e-03}}}};

			const quant_t conv2D_2_biases[24] = { 1.9468197e-01, -8.3046090e-03,  1.9638625e-01, -5.5958498e-02,
	 -3.4387079e-01, -5.7470081e-03, -1.0533941e-01,  3.1733698e-01,
	  1.2423348e-01, -5.4607905e-02, -3.6825586e-02, -6.4512268e-02,
	  1.1417470e-01, -8.6816885e-02,  4.3830666e-01,  2.6015326e-01,
	  1.4264669e-01, -1.6420040e-01, -1.9320869e-04, -3.2783499e-01,
	 -1.3012753e-01,  2.5783804e-01,  6.6040717e-02,  9.4317824e-02};

			const quant_t conv2D_3_kernels[12][1][1][24] = {{{{ 1.65604949e-01, -3.80966276e-01,  1.06389768e-01,  1.99747443e-01,
	    -4.32604961e-02, -3.42826128e-01, -8.01812232e-01, -8.19524974e-02,
	    -2.87099868e-01,  4.63632703e-01,  4.52942634e-03,  2.53586471e-01,
	    -8.09184015e-01, -3.66333663e-01,  1.31077304e-01, -2.14749873e-01,
	     9.62927416e-02,  4.28428739e-01,  2.54180580e-01,  2.58369967e-02,
	    -2.15130508e-01, -1.09259702e-01, -4.22247201e-01,  2.72672236e-01}}},


	 {{{-3.70532572e-01,  4.74938631e-01, -2.01228335e-01,  3.20216030e-01,
	     6.73397779e-02,  3.69445719e-02, -2.45222777e-01,  2.41882354e-01,
	    -8.85517746e-02, -3.44839305e-01, -2.78477192e-01, -4.18801588e-04,
	     8.24450422e-03,  1.43750474e-01, -4.06386763e-01,  1.83478311e-01,
	     8.33885744e-02, -4.74867709e-02, -4.15505953e-02, -1.46424249e-01,
	     6.94386736e-02, -3.93387347e-01,  4.59338546e-01, -3.87037843e-01}}},


	 {{{-2.49412144e-04, -5.90942085e-01,  2.94910878e-01, -3.66645008e-01,
	    -1.23440214e-01, -2.90130675e-01,  1.12155162e-01,  2.28689522e-01,
	     2.97591269e-01, -1.91080660e-01, -7.49516964e-01, -3.73433977e-01,
	    -1.00380354e-01,  7.22347125e-02, -4.42321189e-02, -7.65861049e-02,
	    -6.28344834e-01, -2.30064556e-01, -2.41262138e-01, -1.94970056e-01,
	    -6.63171336e-02,  1.40608731e-03, -8.18063855e-01,  4.41191718e-03}}},


	 {{{ 2.17277005e-01,  2.37941951e-01,  2.44027168e-01,  3.12664986e-01,
	     2.60614127e-01, -1.11817308e-01, -2.53528565e-01, -1.66344810e-02,
	     1.41926393e-01,  1.21973388e-01, -2.19225526e-01,  1.11659467e-01,
	     4.15638506e-01, -6.78159967e-02, -1.43803537e-01, -2.71385610e-01,
	    -4.55611736e-01, -2.50749111e-01, -7.63833225e-02,  6.73197210e-01,
	     1.37230247e-01,  8.42239559e-02, -8.26714486e-02,  1.06055439e-01}}},


	 {{{ 3.02498519e-01, -2.25819111e-01, -2.92687237e-01, -4.53557819e-01,
	    -2.33061582e-01,  1.63280383e-01, -1.70518890e-01,  1.06543906e-01,
	     3.60375196e-01,  5.95219061e-02,  3.51772085e-02,  1.18520878e-01,
	    -7.80996233e-02,  4.04962778e-01,  3.74210700e-02,  3.22264880e-01,
	     7.48352557e-02, -1.86912611e-01, -2.21183389e-01, -1.99776515e-01,
	     5.23678660e-01, -4.64403778e-02, -1.20661803e-01, -2.06962647e-03}}},


	 {{{ 3.12510086e-03,  1.45256221e-01, -8.54766428e-01,  2.81391412e-01,
	    -2.29378209e-01,  2.94044286e-01,  5.92880666e-01,  1.58271551e-01,
	     1.02581851e-01,  4.49391156e-01, -7.34737068e-02,  3.87702063e-02,
	     3.45799804e-01, -2.77705640e-01, -3.40676576e-01,  1.54182822e-01,
	    -6.17485225e-01, -2.23363563e-01, -2.05387175e-01, -1.09814107e-01,
	    -8.67967129e-01, -1.43944267e-02, -2.11402521e-01,  3.34590450e-02}}},


	 {{{-2.38764763e-01,  2.52450794e-01,  1.53399408e-01,  6.16187155e-01,
	     1.12483343e-02, -9.48094547e-01, -2.19112217e-01, -3.19128871e-01,
	    -2.82465339e-01,  1.82816356e-01,  3.02738279e-01,  1.97627783e-01,
	    -8.85811806e-01,  3.24483901e-01,  3.27602416e-01, -7.54669905e-01,
	     1.51766077e-01,  2.38750771e-01, -4.50259089e-01,  7.23840669e-02,
	     1.23438835e-02,  5.68739235e-01,  2.76026100e-01,  1.58089876e-01}}},


	 {{{-4.37798828e-01, -3.32443327e-01,  1.06427008e-02,  3.96853536e-01,
	     2.51697093e-01,  2.32121304e-01, -5.62419593e-01, -1.26030660e+00,
	     3.53339523e-01, -3.59746605e-01,  3.99468690e-01,  1.74247265e-01,
	     1.49880378e-02, -2.73120522e-01, -1.06724656e+00,  2.20513910e-01,
	     1.16608009e-01, -1.06607107e-02, -7.06315517e-01,  3.89215797e-01,
	     7.36034811e-02,  1.62895799e-01, -1.50418386e-01,  2.13594541e-01}}},


	 {{{ 6.28794581e-02, -7.88098991e-01, -4.27948236e-01, -1.92169726e-01,
	    -7.04829454e-01, -2.57332206e-01, -2.81092227e-01,  2.46285707e-01,
	    -2.82705836e-02,  1.32449821e-01,  4.31544274e-01,  3.82092327e-01,
	     1.89903304e-01, -3.00787568e-01,  2.14255363e-01, -2.58524686e-01,
	    -4.92072552e-01, -2.90206224e-01,  1.79896206e-01,  1.40069842e-01,
	    -8.48602876e-02,  3.46966773e-01,  3.93153727e-01,  6.35667816e-02}}},


	 {{{ 2.78101265e-01,  7.84218311e-02, -7.66787454e-02, -2.92195439e-01,
	     4.73528296e-01, -3.89632843e-02,  4.92541566e-02, -1.13009475e-02,
	     3.30607854e-02, -4.90930885e-01, -1.79258272e-01,  2.35717088e-01,
	    -3.46421272e-01,  2.09871948e-01,  1.94547355e-01,  1.73865914e-01,
	    -1.22414179e-01, -2.15345640e-02, -2.99907625e-01, -3.64046842e-01,
	     9.47062820e-02, -9.68047380e-01,  7.46836141e-02, -6.05840206e-01}}},


	 {{{ 8.24296623e-02,  1.76634669e-01, -1.96411572e-02, -3.20727319e-01,
	    -1.43004796e-02, -3.23063433e-01,  1.07746609e-02,  1.99790910e-01,
	     4.02586579e-01, -1.08614556e-01,  5.92672884e-01, -7.04200044e-02,
	     1.55896470e-02, -3.16114545e-01, -1.25421688e-01,  1.17781572e-01,
	     1.95267964e-02,  5.96607387e-01,  5.95072359e-02,  2.10473672e-01,
	     2.57937144e-02, -6.99648857e-02, -2.71968381e-03, -3.87554556e-01}}},


	 {{{-2.53748387e-01, -2.31326848e-01,  4.45938975e-01,  1.24506444e-01,
	    -8.41345906e-01, -3.77941489e-01, -1.55570686e-01, -6.39064014e-01,
	    -1.85287490e-01, -1.80603758e-01, -4.19606775e-01, -3.52805048e-01,
	     2.08776407e-02, -3.38245958e-01, -3.62739563e-01, -2.79030681e-01,
	     3.04912597e-01,  4.81257170e-01,  6.16535783e-01, -1.99896306e-01,
	     1.21826053e-01, -6.43042549e-02, -5.97848237e-01,  2.90659517e-01}}}};

			const quant_t conv2D_3_biases[12] = { 0.28470123  ,  0.02998336  ,  0.4833778   , -0.51580447  , -0.08562943  ,
	  0.0101526175, -0.024272908 ,  0.18414342  , -0.14956793  ,  0.024024077 ,
	 -0.35944667  ,  0.0506624   };

			const quant_t conv2D_4_kernels[28][3][3][12] = {{{{ 4.15177017e-01, -8.52120295e-02,  1.16893455e-01, -4.84852381e-02,
	    -1.79715037e-01,  1.25002638e-01,  1.95049465e-01,  2.71322727e-02,
	    -1.47465825e-01, -2.46605530e-01, -5.24720192e-01, -4.13782783e-02},
	   { 2.48533830e-01, -8.30122828e-02,  4.49176967e-01,  2.96775252e-01,
	     1.66602597e-01,  9.90462229e-02, -9.17992294e-02,  1.38645530e-01,
	    -1.74138010e-01,  1.98239028e-01, -7.33449832e-02, -1.17896780e-01},
	   { 3.18689644e-02,  2.19834745e-01,  2.18133330e-01,  1.18884608e-01,
	     5.28527975e-01,  3.55711989e-02, -3.21991146e-01,  3.03294659e-01,
	    -1.58745542e-01,  2.52809942e-01,  5.10360122e-01,  5.72034940e-02}},

	  {{ 4.13648188e-02, -7.62252510e-02, -9.48374122e-02,  4.12645712e-02,
	    -3.74650359e-01, -2.55580455e-01,  2.82792181e-01, -1.39370576e-01,
	    -1.81934729e-01, -2.87446529e-01, -1.48342952e-01,  8.00771043e-02},
	   { 8.18180144e-02, -1.49751334e-02, -1.63025796e-01, -6.57029077e-02,
	     5.64260744e-02, -1.99772306e-02,  9.15988535e-02, -2.19385371e-01,
	    -3.10692657e-02,  2.94142887e-02,  1.95590019e-01, -1.12436700e-03},
	   {-4.71704602e-02,  1.79311678e-01, -1.17735080e-01,  3.80419046e-02,
	     1.03491731e-02, -2.39232574e-02,  3.09364405e-02, -1.09855004e-01,
	     9.74110439e-02,  1.77995697e-01,  8.77981484e-02, -4.52224836e-02}},

	  {{-2.53529578e-01, -3.59023154e-01, -5.64852357e-01, -2.83317640e-03,
	    -2.35320285e-01, -3.49128693e-01, -2.49699160e-01, -2.48403519e-01,
	    -1.24953993e-01, -6.17051542e-01, -1.50848523e-01,  1.21755585e-01},
	   {-3.20073098e-01, -2.34825537e-01, -4.38638151e-01,  2.53033526e-02,
	     1.16101571e-03, -4.14650850e-02,  2.03344420e-01, -2.03816384e-01,
	     9.21555385e-02, -4.76219684e-01, -1.02554291e-01, -1.58211906e-02},
	   { 1.51838869e-01, -7.79443532e-02, -1.98834389e-01,  1.37931883e-01,
	    -1.27851233e-01,  9.69912112e-03,  8.93414542e-02, -1.46379232e-01,
	     1.51332095e-01, -4.47708696e-01, -1.49582133e-01,  3.40470672e-02}}},


	 {{{ 9.54416320e-02,  4.99890037e-02,  9.30091664e-02,  9.84674543e-02,
	     1.60966724e-01,  1.17865346e-01,  1.65445089e-01,  2.22647727e-01,
	     2.02174440e-01,  4.08143461e-01,  8.80253017e-02, -3.69667411e-02},
	   { 4.27890420e-02, -1.29088297e-01, -1.00353874e-01, -8.19513500e-02,
	     1.14524901e-01,  3.33182603e-01, -1.13610685e-01,  2.63996851e-02,
	     1.36686951e-01,  3.35659415e-01, -3.65325324e-02,  7.37088313e-03},
	   { 4.92636934e-02, -2.59991199e-01, -1.57669678e-01, -1.11514805e-02,
	     5.68078272e-02,  1.17137745e-01,  1.21430248e-01, -8.81386399e-02,
	     9.02587846e-02, -2.21835643e-01, -3.12646717e-01, -2.63457671e-02}},

	  {{ 1.19339429e-01,  8.47995281e-03,  8.99977833e-02, -1.05372798e-02,
	    -1.79741472e-01,  1.39568718e-02,  9.53318998e-02, -2.27506027e-01,
	     1.17971241e-01,  7.17860535e-02, -7.31170829e-03, -2.72798985e-02},
	   { 2.83647954e-01,  4.40438651e-02,  1.16177700e-01, -5.87683246e-02,
	    -3.16010773e-01,  3.30952734e-01,  2.38123182e-02, -4.04319346e-01,
	    -4.47458029e-02, -2.51649678e-01, -1.88325137e-01,  1.57930866e-01},
	   { 1.55457735e-01, -1.09335884e-01,  2.13171169e-02,  1.14708491e-01,
	    -2.92182028e-01,  2.11621299e-01,  8.06218833e-02, -4.09033149e-01,
	    -5.75964004e-02, -2.92361140e-01, -2.71248192e-01, -9.22381654e-02}},

	  {{ 2.14498371e-01,  3.64371054e-02, -1.54998943e-01, -3.25226635e-02,
	    -4.16614741e-01,  5.69501817e-01,  2.94041455e-01, -4.52684134e-01,
	    -2.29128480e-01, -1.31696299e-01, -1.62130252e-01,  2.89097875e-01},
	   { 2.79170036e-01,  6.25892580e-02,  2.55912572e-01,  1.22942224e-01,
	    -3.71696085e-01,  1.06142700e-01,  3.07738334e-01, -2.29403675e-01,
	    -3.58168483e-01, -2.19121262e-01, -4.46518183e-01,  6.09722063e-02},
	   { 1.46978498e-01, -2.86333151e-02,  1.61142856e-01, -6.68857247e-02,
	    -6.30794652e-03,  2.83955067e-01,  1.35877013e-01, -9.67562571e-02,
	    -1.14846580e-01, -1.41979801e-02, -3.79007488e-01,  5.95402680e-02}}},


	 {{{-7.08736926e-02, -1.04087941e-01, -1.74712524e-01, -9.30084810e-02,
	     4.76905107e-02, -4.44652699e-02,  1.62276123e-02, -1.24303199e-01,
	    -2.09765192e-02,  2.15187639e-01,  3.18995900e-02,  6.41080514e-02},
	   {-2.76814401e-01,  3.85979593e-01, -1.96205378e-01,  1.48288772e-01,
	    -5.78462891e-02, -2.26560697e-01,  1.37139946e-01,  3.26457135e-02,
	     9.38286111e-02,  1.27604837e-02, -1.00839220e-01,  2.32023552e-01},
	   {-1.62383303e-01,  2.34204695e-01,  2.92317986e-01,  2.76896507e-01,
	    -1.38692781e-01,  1.39145402e-03, -1.73831880e-02, -2.55993623e-02,
	    -1.37790799e-01,  2.22931266e-01, -1.27874106e-01, -1.61242455e-01}},

	  {{-1.86189443e-01,  2.90871769e-01, -1.50987849e-01,  7.78545626e-03,
	    -1.60223156e-01, -5.32700457e-02,  1.36240095e-01,  8.03257897e-02,
	     3.03794304e-03, -2.18971774e-01, -1.82771102e-01,  8.21523890e-02},
	   {-1.09566204e-01, -2.60814000e-02, -4.89702672e-02,  1.15228437e-01,
	    -9.77368876e-02, -4.08882946e-02,  3.69198740e-01,  2.99630817e-02,
	    -1.04363196e-01,  2.17801020e-01,  8.28374624e-02,  3.66985053e-02},
	   {-1.68909859e-02, -1.14577591e-01,  2.77975678e-01,  2.31550694e-01,
	    -8.98393337e-03,  1.35692179e-01,  2.26801783e-01, -8.73050317e-02,
	    -5.36304303e-02,  1.34542406e-01,  1.05570313e-02, -1.88404664e-01}},

	  {{-4.83844355e-02, -7.97225442e-03, -1.56456977e-01,  6.96414337e-02,
	    -1.49789259e-01,  8.51215571e-02,  8.08202475e-02, -7.18856677e-02,
	     8.12154822e-03, -8.86958539e-02, -3.43787298e-02,  4.42940332e-02},
	   { 1.63790248e-02,  7.37594068e-02, -1.06744841e-01,  1.92655087e-01,
	    -2.28090256e-01, -1.94551367e-02,  6.97965994e-02, -1.78208784e-03,
	    -1.05451576e-01,  1.66805044e-01,  3.43442857e-01,  2.10869133e-01},
	   {-1.49197653e-01,  2.18681306e-01,  4.33342941e-02,  4.96452413e-02,
	    -3.56556885e-02,  5.74448705e-02,  1.64109334e-01,  6.15712767e-03,
	    -5.57029732e-02,  2.72527546e-01, -2.41451524e-02, -2.14443967e-01}}},


	 {{{ 1.80992723e-01, -4.04608488e-01, -8.73878971e-02, -3.37036252e-01,
	    -1.38587490e-01, -1.26092091e-01,  1.19899519e-01, -2.94700295e-01,
	     1.69105288e-02, -1.10997699e-01, -4.11972076e-01,  2.68252380e-02},
	   {-2.05566123e-01, -3.14111590e-01, -8.04352909e-02, -8.36964324e-02,
	    -1.83563739e-01, -1.75420821e-01, -1.14480726e-01,  1.16798086e-02,
	     5.05054817e-02, -2.59277046e-01, -1.81127846e-01,  9.02685430e-03},
	   {-4.43564385e-01, -4.49880809e-01, -2.59057730e-01, -1.21510744e-01,
	    -4.55308944e-01, -3.31059486e-01, -2.35158071e-01, -1.77064180e-01,
	    -1.64877966e-01, -2.51713037e-01, -2.22888246e-01,  4.88702729e-02}},

	  {{ 8.38539675e-02, -1.48827225e-01, -3.30315344e-02,  1.99576557e-01,
	    -1.41461641e-01,  2.78332800e-01,  3.19170535e-01, -2.27881479e-04,
	     9.69376639e-02,  2.65708100e-02, -1.73559621e-01, -1.30986482e-01},
	   {-2.93197960e-01, -1.42868804e-02, -4.37251747e-01,  5.72935566e-02,
	    -2.14551240e-01,  9.97584462e-02,  1.84054881e-01, -3.15482348e-01,
	    -1.38361722e-01, -2.95488834e-01, -3.18909585e-01,  9.08241514e-03},
	   {-3.53747040e-01, -3.20525877e-02, -6.46531641e-01, -2.87278891e-01,
	    -4.53794599e-01, -1.24693625e-01,  1.61623955e-01, -2.78108239e-01,
	     6.15955144e-02, -4.53415185e-01, -3.86936218e-01, -8.74081478e-02}},

	  {{ 2.18879059e-01,  1.67682916e-01,  2.46061996e-01,  4.72734809e-01,
	    -1.90199360e-01,  1.16352357e-01,  2.60562003e-01,  3.27734393e-03,
	     2.93939203e-01,  3.69708717e-01,  5.00556767e-01,  8.92694443e-02},
	   { 1.64554089e-01,  5.14865816e-02, -7.84547478e-02,  9.10079852e-02,
	    -3.29231657e-02,  1.70854345e-01,  5.77067137e-02, -2.76012659e-01,
	     2.67715752e-01,  7.94964209e-02,  9.60637555e-02,  1.76981285e-01},
	   {-2.27010418e-02,  1.42212689e-01, -4.52477448e-02,  8.07155445e-02,
	    -4.55504656e-01,  8.84692669e-02,  9.36417952e-02, -3.80228907e-01,
	    -5.26721925e-02, -1.50030583e-01, -4.78230938e-02,  3.39068361e-02}}},


	 {{{-1.05240837e-01, -2.82247394e-01, -5.03289588e-02, -9.47570950e-02,
	    -6.23891428e-02, -6.59384057e-02, -3.81653905e-01, -2.00324178e-01,
	    -2.44918287e-01, -3.49905789e-01, -1.44050583e-01, -2.29597285e-01},
	   {-8.62648785e-02, -1.67227758e-04,  6.51714280e-02, -2.04303131e-01,
	     1.03682317e-01, -1.20193116e-01,  8.08908865e-02,  4.12812948e-01,
	    -1.26438603e-01, -2.40636393e-01, -7.97000304e-02,  1.84339762e-01},
	   {-7.16304481e-02, -9.58415568e-02, -2.01088488e-01, -1.32592767e-01,
	    -2.35406518e-01,  1.65376768e-01,  1.13912784e-01,  3.70945454e-01,
	     7.43624866e-02,  2.08156586e-01, -1.63696751e-01,  2.10936353e-01}},

	  {{-1.20447025e-01, -2.97346294e-01, -4.45084348e-02, -2.02686578e-01,
	    -2.62944639e-01,  1.56834647e-01, -1.40399024e-01, -9.95162427e-02,
	    -6.79921433e-02, -6.19536102e-01, -4.25985515e-01, -1.54856071e-01},
	   {-1.06813498e-01,  3.02126050e-01,  1.32838354e-01, -6.64305761e-02,
	     1.57854557e-01, -1.02779053e-01, -2.59762645e-01,  3.61465245e-01,
	     1.00517720e-02, -2.71496147e-01, -2.08872601e-01,  1.14833049e-01},
	   {-2.28287071e-01,  3.08555067e-01, -2.76527405e-02, -5.35612442e-02,
	     4.49504077e-01, -4.79266383e-02, -6.24435954e-02,  4.22546059e-01,
	    -2.63579786e-02,  2.13185072e-01,  2.20348969e-01,  1.07466310e-01}},

	  {{ 2.39784151e-01, -5.90376779e-02,  1.50093749e-01, -2.64783561e-01,
	    -5.09318747e-02,  1.14916079e-01,  8.42641573e-03,  2.65406013e-01,
	    -8.21037069e-02, -1.25801578e-01, -4.39876080e-01,  1.83678996e-02},
	   {-1.06686860e-01, -7.12656006e-02,  1.10474974e-01, -1.18969448e-01,
	     1.57835871e-01, -1.02942847e-01, -1.13015458e-01,  1.86674029e-01,
	    -1.42198458e-01, -1.41236022e-01, -2.89394259e-01,  7.23104924e-02},
	   { 5.53134270e-02,  1.13011807e-01, -4.80810590e-02,  5.19958958e-02,
	     1.49396360e-01, -5.07665686e-02, -1.02516502e-01,  2.00929925e-01,
	    -1.90302189e-02, -1.27549404e-02,  2.88438588e-01,  2.67635938e-02}}},


	 {{{ 1.40548339e-02, -1.83348641e-01,  8.83010495e-03,  1.48483008e-01,
	    -1.17102541e-01, -1.18327320e-01, -2.96778709e-01, -2.96215266e-01,
	    -1.61498800e-01,  2.85678934e-02, -1.14569940e-01,  1.10725850e-01},
	   { 2.85656929e-01, -4.97353859e-02,  1.52870896e-03,  1.26691192e-01,
	    -1.22957155e-01,  2.17889085e-01, -1.68613628e-01, -3.72104347e-01,
	    -2.17606068e-01, -7.12309256e-02, -1.23495571e-01,  1.55696496e-01},
	   { 1.76612481e-01,  4.14364599e-02, -1.19786799e-01,  2.68030494e-01,
	     1.52640477e-01,  2.47638330e-01,  3.86528999e-01, -1.17266558e-01,
	    -2.88877070e-01, -4.91161644e-02, -8.60209763e-02,  1.73907548e-01}},

	  {{ 2.11881071e-01,  4.20057066e-02, -3.98833714e-02,  3.85422818e-02,
	    -1.88073978e-01,  1.70457125e-01,  1.17411204e-01, -8.34636614e-02,
	    -1.61813065e-01,  1.28233254e-01,  1.91144392e-01,  1.17852934e-01},
	   { 6.10248037e-02, -7.21245632e-03, -1.06724195e-01,  2.53121346e-01,
	     5.82470894e-02,  1.10312901e-01,  2.45734125e-01,  9.84726194e-03,
	    -6.74409196e-02,  1.64828405e-01,  1.98092788e-01, -5.23927547e-02},
	   { 7.54504502e-02,  7.69228563e-02, -1.98249489e-01, -5.65436482e-02,
	     7.77273700e-02,  9.41519663e-02, -1.64935589e-02,  1.50536671e-01,
	     1.65669560e-01,  7.44912028e-02,  1.73710436e-01,  3.10468316e-01}},

	  {{ 9.64470208e-02, -4.55047414e-02, -1.60218492e-01,  3.25720012e-01,
	     2.35424757e-01,  2.15392932e-01,  4.13510472e-01,  2.56465286e-01,
	     8.93984735e-02,  1.38238564e-01,  2.54419535e-01,  5.33935651e-02},
	   {-1.36894453e-02,  4.77483496e-02, -1.56899616e-02,  2.00820044e-01,
	     4.98195849e-02,  1.91586152e-01, -5.63966557e-02,  2.64336079e-01,
	     1.22564174e-01,  5.78121580e-02,  1.97593570e-01,  5.23125641e-02},
	   { 5.19448407e-02,  3.56228314e-02, -4.38631363e-02, -1.31760776e-01,
	     1.09416261e-01,  3.91988248e-01, -1.17088415e-01,  4.30441290e-01,
	     2.36527011e-01,  6.53588120e-03,  1.20599180e-01,  3.58424522e-02}}},


	 {{{ 1.16818972e-01,  9.06781778e-02, -1.41731337e-01, -2.15313539e-01,
	     2.92877495e-01, -2.35917673e-01,  2.14351162e-01,  5.09787381e-01,
	     4.10676986e-01,  4.07966366e-03,  2.12717846e-01,  2.25386754e-01},
	   { 2.31120110e-01, -3.13102812e-01,  6.95688799e-02, -8.90891850e-02,
	     1.59270335e-02,  6.73005637e-03, -8.83069038e-02,  1.97641198e-02,
	     5.40967509e-02,  6.91914111e-02,  1.88875049e-02,  1.35312945e-01},
	   { 1.80459484e-01, -2.57715821e-01, -3.39162350e-02, -7.04159439e-02,
	     2.59141829e-02, -1.68917596e-01, -3.64992954e-03, -3.72559414e-03,
	    -1.14048339e-01, -1.44730017e-01, -7.49219954e-02,  1.03170663e-01}},

	  {{ 1.43627524e-01, -5.35150290e-01,  3.60952727e-02,  1.47800863e-01,
	    -8.74933377e-02,  2.18290716e-01, -8.83944854e-02, -3.03238064e-01,
	    -1.01341508e-01, -1.28114119e-01, -2.86808670e-01,  8.25244039e-02},
	   { 5.69386519e-02, -7.57472813e-01, -2.20136959e-02, -8.30847546e-02,
	    -3.07584643e-01, -6.20471425e-02, -3.50832731e-01, -3.73349428e-01,
	    -2.96486169e-01, -5.24833858e-01, -4.60663021e-01, -1.37393221e-01},
	   {-5.15501276e-02, -5.89789331e-01,  4.19078879e-02, -1.93639584e-02,
	    -2.17270255e-02, -1.66360103e-02, -3.57960135e-01, -7.73773715e-02,
	    -3.90740782e-01, -4.26049173e-01, -3.69166970e-01, -1.27837464e-01}},

	  {{ 2.09514365e-01,  8.44050273e-02,  4.20246385e-02,  6.47302151e-01,
	    -1.44486114e-01,  1.96619958e-01,  2.01267049e-01, -8.60935524e-02,
	    -6.90991953e-02, -1.40056312e-01,  1.01562984e-01,  4.07475047e-02},
	   {-9.46477652e-02,  1.64992645e-01, -1.76514953e-01,  2.01771796e-01,
	    -2.01546133e-01,  1.03396036e-01, -2.80838758e-02,  1.55500695e-01,
	    -8.43793824e-02, -4.10319120e-02,  1.05223641e-01,  4.45089042e-02},
	   {-8.41818824e-02,  6.12461716e-02, -2.21947148e-01,  5.28092086e-02,
	     9.57076903e-03, -4.69952337e-02, -9.12818611e-02,  4.76092309e-01,
	     2.92522222e-01,  1.02606535e-01,  4.06069607e-01, -2.63768196e-01}}},


	 {{{ 4.25826237e-02, -1.86884142e-02, -9.07231681e-03, -7.40365610e-02,
	     3.80181000e-02, -5.29724956e-02,  2.90054139e-02,  8.58850684e-03,
	    -9.86148566e-02, -5.08362092e-02,  5.07523790e-02,  3.23197176e-03},
	   { 2.07321998e-02, -1.29117951e-01, -1.27652168e-01, -1.32606864e-01,
	    -2.79915854e-02,  1.38321810e-03,  3.95388752e-02, -1.08424556e-02,
	    -1.49120167e-01, -1.26181707e-01, -1.03260376e-01,  6.74965009e-02},
	   { 4.36876714e-02, -2.37642042e-02, -5.25354259e-02, -2.88678911e-02,
	    -1.08195081e-01,  3.65614220e-02,  1.75764505e-02, -8.02545622e-02,
	     4.07701433e-02,  5.81453741e-02, -1.24363117e-01,  4.68635559e-02}},

	  {{-4.72655185e-02,  7.84464926e-02,  3.38318013e-03, -3.62301506e-02,
	    -1.23096325e-01, -3.65579315e-02,  4.07166034e-02, -1.47459999e-01,
	    -2.09037308e-02, -7.05958977e-02,  5.94192930e-02, -6.37906864e-02},
	   {-1.20524026e-01, -1.35671705e-01, -3.02091613e-02,  7.32106715e-02,
	    -3.93742844e-02, -1.56249953e-02, -5.20489216e-02,  1.08549483e-01,
	    -1.86342318e-02, -1.70095846e-01,  2.05311668e-03, -5.59919626e-02},
	   { 7.67245889e-02, -8.40759873e-02, -1.19073905e-01, -1.11922594e-02,
	     1.23431757e-01, -4.23001982e-02, -6.51153177e-02,  7.74548948e-02,
	    -1.32272735e-01,  1.68854091e-02, -1.73080087e-01, -5.15707247e-02}},

	  {{ 6.81012645e-02, -1.22097611e-01,  3.24083604e-02, -1.38838023e-01,
	     7.64449984e-02,  8.28758776e-02,  5.58671691e-02, -1.39566725e-02,
	    -2.25066263e-02, -1.02452822e-01, -2.76308507e-02,  8.13331977e-02},
	   { 4.89448905e-02, -8.83482397e-02,  5.13655767e-02, -9.52585787e-02,
	     1.06997583e-02, -1.18814185e-02, -1.54838450e-02, -1.28725683e-02,
	     1.67168397e-02,  7.15029389e-02, -2.80354060e-02, -9.03185830e-02},
	   {-6.69927001e-02, -9.35356915e-02, -5.13049811e-02, -8.68116617e-02,
	    -6.08866662e-02, -5.41847013e-02, -4.48842254e-03,  7.34076947e-02,
	     2.28210483e-02, -2.07054392e-02,  4.75088470e-02,  1.10685691e-01}}},


	 {{{ 7.31878877e-02, -8.04352388e-02, -4.18048859e-01,  7.88534507e-02,
	    -2.92493343e-01, -3.04945856e-01,  3.69331062e-01, -1.96690381e-01,
	    -3.19261640e-01,  4.89642173e-02, -8.99641663e-02,  1.24708734e-01},
	   { 1.18144721e-01,  2.26925105e-01, -2.90695280e-01,  2.09058989e-02,
	    -1.48815690e-02, -3.08776796e-01,  1.57089010e-01,  1.73541769e-01,
	     3.96365225e-02, -8.04212969e-03,  1.07822428e-02,  6.00336790e-02},
	   { 1.35708615e-01, -1.06364131e-01,  1.51721522e-01,  1.74814746e-01,
	    -8.88605714e-02, -1.41147986e-01,  2.91979343e-01,  2.62045991e-02,
	    -6.46967441e-02,  2.24759519e-01,  1.68819204e-01, -1.09256901e-01}},

	  {{-2.27550417e-01, -2.22925484e-01,  5.04759103e-02,  5.29869273e-02,
	    -1.64717063e-01, -5.29082000e-01, -2.57710397e-01,  7.47364759e-02,
	     3.62126976e-02,  5.47324978e-02, -2.52261072e-01, -8.63405839e-02},
	   {-1.83046639e-01, -1.99647665e-01, -8.37047547e-02, -3.38581771e-01,
	    -3.55278188e-03, -1.95775449e-01, -1.21463984e-01,  1.04012050e-01,
	     1.17263645e-01, -4.93127584e-01, -3.25141877e-01, -1.55917495e-01},
	   { 1.09091066e-02, -3.99378091e-01,  6.43257797e-02, -6.77572265e-02,
	     1.69252664e-01, -1.49863049e-01, -4.26478535e-01, -1.66586503e-01,
	     1.71630811e-02, -1.28977105e-01, -9.44309756e-02,  2.96027735e-02}},

	  {{-9.41186547e-02,  1.65533513e-01,  4.93350402e-02, -9.18203369e-02,
	     1.13399193e-01, -2.89123327e-01, -1.74791083e-01,  8.58956873e-01,
	     3.28025557e-02,  2.31964245e-01, -4.16950025e-02, -1.44817770e-01},
	   {-8.83845761e-02, -3.48954052e-01,  6.00721538e-02,  8.97507817e-02,
	    -5.13415970e-02, -9.03988257e-02, -4.30841953e-01, -3.18403132e-02,
	    -3.00113186e-02, -1.29269019e-01,  1.28145441e-01, -2.42117662e-02},
	   { 8.30758810e-02, -4.81216908e-01, -3.92847992e-02, -9.70038176e-02,
	     1.86632928e-02, -1.55717462e-01, -6.26621604e-01, -3.07450984e-02,
	     2.16434821e-01, -2.43728548e-01, -2.28694558e-01, -8.34375322e-02}}},


	 {{{ 2.80129135e-01,  9.14038345e-02, -1.08297072e-01, -7.56726265e-02,
	    -1.71317905e-01,  1.69874042e-01,  2.44054303e-01, -3.18292409e-01,
	    -1.45777240e-01,  1.10730395e-01, -2.43745390e-02, -1.80937201e-01},
	   { 8.34255069e-02, -1.26119331e-01,  2.99227566e-01,  1.60637751e-01,
	    -1.15975916e-01, -1.35351986e-01, -2.49491110e-01,  4.78515662e-02,
	    -5.71012437e-01,  1.99734652e-03,  1.85533106e-01,  2.61238143e-02},
	   {-2.86220521e-01, -2.32014433e-01,  1.12107582e-01, -1.08942471e-01,
	     2.23471373e-01, -2.09189206e-01, -2.85953492e-01,  1.78058788e-01,
	    -4.53334041e-02,  5.49805313e-02,  2.12568700e-01,  4.68040742e-02}},

	  {{ 3.49642217e-01, -9.73894298e-02, -1.08447611e-01,  9.34051871e-02,
	    -2.74908692e-01,  4.23668712e-01,  5.15186787e-01, -2.17002537e-02,
	    -8.08595493e-02, -2.03593507e-01, -2.83271343e-01,  6.72161803e-02},
	   { 1.81111917e-02,  1.51849762e-01, -3.66498679e-02,  1.27463609e-01,
	     3.11156902e-02, -1.22849241e-01,  2.16663778e-01, -1.77389830e-02,
	    -1.57482177e-01,  1.08826987e-01,  9.44239553e-03, -2.33883709e-02},
	   {-1.89760357e-01, -1.35947302e-01,  2.64043093e-01, -1.33756042e-01,
	     2.46564373e-01, -2.07008675e-01, -3.46568376e-01,  3.82073820e-01,
	    -4.35477449e-03, -2.74945479e-02,  6.49882257e-02,  7.00828359e-02}},

	  {{ 2.51844287e-01, -3.00750285e-01, -1.16505511e-01,  2.22868286e-02,
	    -2.08116826e-02,  7.02219084e-02, -1.78043712e-02,  2.14926079e-01,
	    -7.08706900e-02, -1.32364959e-01, -3.91509943e-02,  2.72901595e-01},
	   { 1.08800605e-01, -1.09883904e-01, -2.63589501e-01,  1.37094080e-01,
	     1.85085133e-01,  1.74642041e-01,  4.06200230e-01,  6.64506480e-02,
	     3.24886106e-02, -7.27399141e-02, -2.29369134e-01, -7.22646192e-02},
	   {-7.75325149e-02, -3.87821137e-03, -9.97665673e-02,  3.04387689e-01,
	     1.73689559e-01, -5.64835556e-02, -1.67192221e-02,  5.04032969e-02,
	     1.32146716e-01,  7.41900355e-02,  1.40622668e-02, -2.24745974e-01}}},


	 {{{ 2.78697908e-01, -2.42675431e-02,  1.07291155e-01,  3.61845754e-02,
	    -1.21689782e-01,  1.69748113e-01,  3.12907577e-01, -1.36605471e-01,
	    -1.25110701e-01,  1.39072612e-01,  2.66387492e-01,  1.70730576e-01},
	   { 8.20987076e-02, -4.93220314e-02, -3.36425677e-02,  6.71998560e-01,
	    -8.17172080e-02,  5.35483882e-02,  4.63236161e-02,  3.36568296e-01,
	    -3.76594752e-01,  2.25675985e-01,  2.23558262e-01, -8.13393965e-02},
	   {-1.00694939e-01,  1.18553102e-01,  9.62667691e-05, -1.92493185e-01,
	     4.06638026e-01, -4.79281068e-01, -3.50149006e-01,  4.72734481e-01,
	     1.02779545e-01,  2.64905214e-01,  3.62067483e-02,  2.85577085e-02}},

	  {{-2.51490802e-01,  1.43315807e-01,  1.83081493e-01, -6.20794743e-02,
	     4.96293716e-02, -2.32443497e-01,  6.14861324e-02,  1.59312859e-01,
	     1.84167638e-01,  1.41312391e-01,  1.62328869e-01, -3.58638056e-02},
	   {-4.97332476e-02,  1.46113440e-01,  2.68164445e-02,  1.33986071e-01,
	     2.22090930e-01, -1.40023261e-01,  3.12717289e-01,  2.19329268e-01,
	    -2.76151299e-01,  6.12004064e-02,  2.61671208e-02,  3.64250779e-01},
	   { 2.69544005e-01,  4.19432819e-01, -2.26462498e-01, -1.46630049e-01,
	    -4.89247739e-01, -2.92049319e-01,  2.49445915e-01, -1.65998042e-01,
	    -2.24101931e-01,  4.02469411e-02,  2.84377486e-01,  4.00658846e-01}},

	  {{-1.78487331e-01, -8.42575803e-02,  1.76601201e-01,  4.12572324e-02,
	     2.84805279e-02, -2.77120411e-01, -1.11222267e-01,  2.04367608e-01,
	    -1.21977814e-01,  5.14485836e-02,  1.88984483e-01, -1.45305321e-01},
	   { 2.23729238e-01, -5.03056526e-01,  7.47814626e-02,  3.65218185e-02,
	     8.71120021e-02,  5.03689460e-02, -4.04317588e-01, -3.89427058e-02,
	    -2.94896096e-01, -1.54941916e-01, -3.13669033e-02,  4.00602818e-01},
	   { 3.74412447e-01, -3.33144128e-01, -3.91133308e-01, -1.96184963e-01,
	    -3.09977978e-01, -2.12954134e-02,  2.93229312e-01, -5.34782782e-02,
	    -3.25301230e-01, -1.01362675e-01, -1.00325108e-01,  3.74382317e-01}}},


	 {{{ 3.43466729e-01, -9.02982056e-02,  2.50259519e-01, -7.26779550e-02,
	     2.52063483e-01,  5.44082746e-02, -9.07332823e-03, -3.70407738e-02,
	    -3.69522989e-01,  1.90325364e-01,  7.22438693e-02,  6.66601509e-02},
	   { 9.07479152e-02, -4.12204981e-01,  3.01377445e-01, -4.09338661e-02,
	     7.49832243e-02, -1.03245959e-01, -3.03275615e-01, -1.34827541e-02,
	    -4.49028671e-01,  1.15176529e-01, -2.96657663e-02, -8.55971649e-02},
	   { 2.48408630e-01,  7.06927702e-02,  1.27871215e-01,  5.74325286e-02,
	     4.43718880e-01, -3.26364130e-01, -3.37827951e-01,  2.30486706e-01,
	     4.80395593e-02,  3.61020625e-01,  1.99147835e-01, -1.42090052e-01}},

	  {{ 3.62996787e-01, -6.60321951e-01,  3.33731174e-01,  4.86705191e-02,
	    -4.70914915e-02,  3.18397805e-02, -2.82894939e-01, -1.04250275e-01,
	    -3.52489471e-01,  2.33466282e-01, -1.04346965e-02,  8.05147067e-02},
	   { 9.79827344e-02, -6.97439849e-01, -6.49705604e-02,  1.29714906e-01,
	    -1.14479236e-01, -6.15729205e-03, -4.85782444e-01, -1.40735775e-01,
	    -3.87333900e-01,  3.14187884e-01,  4.63656858e-02,  3.21302842e-03},
	   { 2.11434979e-02, -1.44677192e-01, -4.37317118e-02, -1.21000312e-01,
	    -4.65242378e-03, -2.60392159e-01, -5.61640322e-01, -2.36423407e-02,
	     1.44927874e-01,  1.51535049e-01,  1.93932876e-01, -3.36106598e-01}},

	  {{ 8.27886984e-02, -4.03812788e-02,  1.00897066e-01,  3.35045099e-01,
	    -1.10560820e-01, -7.21607506e-02, -1.78443119e-02, -1.79331347e-01,
	    -3.42050254e-01, -5.50502352e-02,  2.51375437e-01, -9.55513865e-02},
	   { 4.65467088e-02, -1.29028067e-01,  8.52178782e-02,  1.90094009e-01,
	    -1.01870932e-01, -8.76588747e-02, -1.59515649e-01,  4.78612771e-03,
	    -3.72998528e-02,  9.45633650e-02,  2.60923058e-01, -8.76417756e-02},
	   { 1.72352884e-02,  2.14917496e-01,  1.53114647e-01,  6.76808953e-02,
	     5.42015694e-02, -8.73175636e-02, -3.27238560e-01,  2.84508109e-01,
	     2.30847567e-01,  2.52768010e-01,  2.31836841e-01, -1.96573794e-01}}},


	 {{{-1.31169602e-01,  5.79055510e-02, -3.57266925e-02, -4.85715836e-01,
	     2.73037404e-01,  4.56878990e-02, -1.16540127e-01,  5.95367439e-02,
	     2.08415791e-01, -3.12982887e-01, -1.37305679e-02,  1.60478666e-01},
	   { 1.01013064e-01,  1.55179039e-01, -1.53912231e-01, -3.08004230e-01,
	     4.68283817e-02, -1.95709437e-01, -1.31589636e-01, -9.30147618e-02,
	     4.11929578e-01, -3.27030391e-01, -7.62905777e-02,  2.66767591e-01},
	   {-2.08327904e-01,  3.34352821e-01, -2.09865421e-01, -7.43169114e-02,
	    -1.79712951e-01,  5.78762479e-02,  9.92887770e-04, -6.79930598e-02,
	     5.77424932e-03, -5.65924309e-02, -5.52235767e-02,  7.38356709e-02}},

	  {{ 2.61257235e-02, -2.77515203e-01,  7.72059336e-02,  2.40757644e-01,
	    -1.21595055e-01, -1.16551124e-01, -1.79101110e-01, -8.80118161e-02,
	    -1.30696073e-01, -2.95713961e-01, -1.59847699e-02, -7.47925416e-02},
	   {-3.75346579e-02, -2.15318248e-01,  3.36610198e-01, -2.76530068e-02,
	     1.20766480e-02, -1.71833649e-01, -4.93586272e-01,  5.77094443e-02,
	    -1.17688635e-02, -1.91019148e-01, -1.31018251e-01, -2.50888485e-02},
	   {-2.54359901e-01,  2.34676421e-01, -1.88972518e-01,  5.64232096e-02,
	    -2.18391865e-02, -2.95680374e-01, -2.49111831e-01,  2.28438918e-02,
	     1.34303957e-01,  1.58874556e-01,  4.00593221e-01,  5.40273301e-02}},

	  {{ 4.61217999e-01,  9.06405151e-02, -2.31102481e-02,  1.81383625e-01,
	    -8.88790861e-02,  2.00254142e-01,  1.03441522e-01,  1.10078424e-01,
	    -9.74403694e-02,  7.91315883e-02,  8.45922306e-02,  1.97739810e-01},
	   { 4.41909060e-02, -2.21942917e-01,  2.62297601e-01,  1.77533239e-01,
	     4.98757288e-02,  1.28486812e-01, -5.17472439e-02,  2.21684605e-01,
	    -2.75834531e-01,  7.83341751e-02, -1.77995525e-02, -1.30813554e-01},
	   { 3.53512675e-01, -2.03284919e-01,  6.13570631e-01,  3.77434909e-01,
	    -3.06341872e-02,  1.98364794e-01, -2.20236033e-01,  1.97075736e-02,
	    -3.35785210e-01,  4.26389351e-02,  1.75287023e-01, -1.16267428e-02}}},


	 {{{ 1.28252164e-01, -8.59775692e-02, -6.81758374e-02,  2.91828364e-01,
	    -4.63042259e-01,  2.25004956e-01,  2.79752403e-01, -1.12834416e-01,
	    -3.95651996e-01,  2.47741565e-01, -1.65818825e-01, -3.43911558e-01},
	   { 4.07276779e-01, -4.86588478e-01,  5.00880301e-01,  2.13788986e-01,
	    -1.13200368e-02,  1.22371309e-01, -2.23983482e-01, -1.39630914e-01,
	    -6.10889554e-01, -1.55664399e-01, -1.16693020e-01,  2.94630434e-02},
	   { 8.02155808e-02,  2.75627673e-02,  4.53256667e-01, -8.13167766e-02,
	     5.65324426e-01,  4.32627983e-02, -2.99471408e-01,  3.17165613e-01,
	    -3.23330104e-01, -4.96704988e-02, -4.71137017e-02,  1.67904869e-01}},

	  {{-1.67346254e-01,  1.94532961e-01, -2.77050883e-01, -2.25066662e-01,
	    -4.70286518e-01, -3.37407812e-02,  5.68218529e-01, -1.92816049e-01,
	     1.34095222e-01,  2.71219552e-01,  5.85837923e-02, -5.63964322e-02},
	   {-1.31622061e-01,  6.56050593e-02, -7.62792453e-02,  1.61131144e-01,
	    -3.02157979e-02, -7.94608444e-02,  1.65173993e-01, -3.42824101e-01,
	    -9.07754004e-02, -2.91539505e-02, -1.23703346e-01, -2.19152182e-01},
	   {-9.15672164e-03,  2.23492786e-01, -1.31513596e-01, -6.48967326e-02,
	     1.25774279e-01, -6.31783083e-02, -2.16022640e-01, -1.68560185e-02,
	    -1.13808461e-01, -3.79007570e-02,  2.24362701e-01, -1.98587239e-01}},

	  {{-9.48492587e-02,  3.26784581e-01,  1.57569557e-01, -1.08106688e-01,
	    -1.49024099e-01, -3.93187553e-01,  2.94186845e-02,  9.18675214e-02,
	     3.01638782e-01,  5.73100984e-01,  1.50047615e-01,  2.79383361e-01},
	   {-1.87219650e-01, -1.94574431e-01,  2.04502456e-02,  8.92341509e-02,
	     1.44906640e-02, -2.19647065e-01, -6.93049841e-03,  2.56975517e-02,
	     1.16380453e-01,  6.09102100e-02,  9.00957268e-03,  3.96200083e-02},
	   { 8.22287053e-02,  9.58393812e-02, -1.07780471e-02,  1.51137486e-01,
	    -6.55259416e-02,  4.18053046e-02, -1.66690946e-01, -6.84843287e-02,
	     2.81602256e-02, -2.99316980e-02, -5.97570874e-02,  1.63994446e-01}}},


	 {{{ 1.02989161e-02,  2.76813120e-01,  2.98719287e-01,  2.45606191e-02,
	    -2.55918473e-01,  7.25572780e-02,  1.27490669e-01,  3.15825045e-02,
	     1.34188935e-01,  4.29483876e-02,  1.84644446e-01, -6.46982342e-02},
	   { 7.24160448e-02,  4.16191071e-01,  1.73522934e-01, -9.09321569e-03,
	    -1.96920589e-01,  5.62912188e-02,  3.91115457e-01, -1.95939243e-01,
	     2.31684670e-01, -1.41546384e-01, -4.01895726e-03,  7.86139444e-02},
	   {-2.34294813e-02,  4.05832350e-01, -8.83867368e-02,  1.73353657e-01,
	    -2.53327221e-01,  7.48304129e-02,  1.31496221e-01, -9.49275345e-02,
	     6.58210963e-02,  2.23772973e-02,  1.62525102e-01,  1.30085558e-01}},

	  {{ 1.91863835e-01, -2.69425452e-01,  4.44728732e-02,  1.43658862e-01,
	    -1.84052497e-01, -1.65263847e-01, -3.02712573e-03, -2.40232572e-01,
	    -5.64993382e-01,  1.40368998e-01,  3.17853987e-01, -7.63694718e-02},
	   { 7.45068192e-02, -2.95209438e-01,  7.19127432e-02,  2.18126029e-01,
	    -3.54892075e-01, -4.04226407e-02,  5.93418032e-02, -4.18016940e-01,
	    -7.10616112e-01,  3.87852080e-02,  6.04509488e-02,  1.42187020e-02},
	   { 1.73398852e-01,  5.71057759e-02,  4.35422063e-02,  2.73635596e-01,
	    -3.63379389e-01,  1.21815160e-01,  1.23653360e-01, -3.99083495e-01,
	    -2.19006747e-01,  1.20066799e-01,  2.21042514e-01,  2.47133151e-02}},

	  {{-9.33716670e-02, -3.88028175e-01,  8.99757668e-02,  1.36735290e-01,
	    -3.14586401e-01, -1.75536826e-01, -1.95288092e-01, -2.49147013e-01,
	    -4.93558645e-01,  5.26826143e-01,  3.66141349e-01, -1.89978227e-01},
	   { 3.54332030e-02, -6.56370342e-01,  6.31707683e-02,  1.47438020e-01,
	    -2.23711908e-01,  4.98692039e-04, -2.44936362e-01, -3.30815941e-01,
	    -7.20215499e-01, -1.95912141e-02,  2.56752651e-02, -2.13209555e-01},
	   { 3.29592302e-02, -1.68511774e-02,  1.39400765e-01,  1.79994255e-01,
	    -5.42396270e-02,  7.82741383e-02, -1.83030471e-01, -2.22579598e-01,
	    -3.11908454e-01,  8.48520324e-02, -2.67920755e-02, -1.59946471e-01}}},


	 {{{-7.84998611e-02,  1.73268914e-01, -2.00921625e-01, -6.45766631e-02,
	    -1.11017167e-03, -8.14532563e-02,  3.89534906e-02, -1.82172671e-01,
	     1.32043198e-01, -2.67697889e-02, -1.50256366e-01, -8.54824334e-02},
	   {-1.87085085e-02, -4.43318307e-01,  1.06300816e-01,  1.85950864e-02,
	     6.16637506e-02,  6.30311891e-02, -2.01129485e-02, -9.82937962e-02,
	    -6.05401173e-02, -2.28623390e-01, -2.16607094e-01, -4.47877981e-02},
	   { 1.21325016e-01, -4.71168727e-01,  2.11018071e-01, -1.87772233e-02,
	    -1.08334171e-02,  1.48182467e-01, -1.25822350e-01, -9.86228883e-02,
	    -2.65615821e-01, -3.22584540e-01, -1.75649211e-01, -2.81087130e-01}},

	  {{ 1.34905815e-01, -3.86475205e-01,  3.61398548e-01, -1.45529211e-02,
	     2.68963814e-01, -2.74243951e-01, -1.31972224e-01, -2.30799675e-01,
	    -3.14298570e-01,  5.58029823e-02, -2.33910844e-01, -1.26969025e-01},
	   { 1.49876401e-01, -4.36838686e-01,  2.58542597e-02,  1.69366095e-02,
	     5.83437458e-02, -2.67205656e-01, -3.02572489e-01, -3.48468393e-01,
	    -5.23122013e-01,  1.71483144e-01, -1.46999806e-01, -1.33939624e-01},
	   { 3.14884305e-01, -1.70019761e-01,  1.69947550e-01,  1.51273802e-01,
	    -4.24582586e-02, -8.65418166e-02, -3.15369338e-01, -4.22761768e-01,
	    -1.95774719e-01,  1.21292688e-01, -4.16849889e-02, -1.04035571e-01}},

	  {{ 1.16854951e-01,  3.56077641e-01,  3.35795492e-01,  2.26590201e-01,
	     7.72137940e-02, -1.24723732e-01, -1.31880865e-02, -3.41988295e-01,
	    -6.37275577e-02,  1.92994729e-01, -1.75833434e-01, -9.00434405e-02},
	   { 3.11815571e-02,  6.06973648e-01,  2.88145304e-01,  9.90157202e-03,
	    -1.14842281e-01, -1.17810875e-01,  6.77147228e-03, -1.33207247e-01,
	    -3.10372531e-01,  3.67359430e-01, -5.64110205e-02, -1.69983264e-02},
	   { 7.56247491e-02,  7.68345952e-01, -2.55439520e-01, -2.71068692e-01,
	    -2.18568146e-01, -2.49601126e-01, -3.40979286e-02, -2.93806493e-01,
	     5.00053912e-02,  3.61907125e-01,  2.94091612e-01, -7.34579861e-02}}},


	 {{{-1.55925512e-01,  3.23046654e-01, -3.02076459e-01, -2.97968864e-01,
	    -7.50439391e-02, -1.40735507e-01,  1.37213885e-03, -1.64015234e-01,
	     1.91234186e-01, -2.71181315e-02, -2.41351128e-01, -1.15055583e-01},
	   {-8.99913535e-02,  1.33066207e-01, -2.12620065e-01,  5.46474397e-01,
	     1.12990186e-01, -1.58897918e-02,  2.64929742e-01, -6.90916702e-02,
	    -6.24849051e-02,  2.71044284e-01,  1.37042329e-01,  7.09481314e-02},
	   { 9.47228968e-02,  1.04854777e-01, -2.21166350e-02,  3.89972329e-01,
	    -9.53632593e-02,  1.86600178e-01,  3.83833915e-01,  3.25478204e-02,
	    -3.03829551e-01,  9.37613621e-02,  3.22631508e-01, -6.99049383e-02}},

	  {{-3.91002148e-01, -3.23762596e-02, -4.74674612e-01, -2.69478679e-01,
	    -3.49455550e-02, -1.82859853e-01, -2.63752043e-01,  1.67331696e-01,
	     5.24875522e-01, -2.72630662e-01, -2.86646783e-01, -1.21549957e-01},
	   {-6.74642669e-03, -1.19834691e-01, -2.62045443e-01, -7.12583438e-02,
	     2.55667418e-01, -3.17028239e-02, -5.35552092e-02, -5.08530214e-02,
	     2.38566119e-02, -4.62809026e-01, -2.54482985e-01,  2.81418543e-02},
	   { 4.39224273e-01,  2.19340473e-02,  2.44331673e-01,  5.11958063e-01,
	    -1.41974390e-02,  2.64166474e-01,  1.87972799e-01, -7.27354214e-02,
	    -1.13110684e-01, -2.42184356e-01, -8.34686402e-03,  2.83663958e-01}},

	  {{-3.67777795e-01, -3.51974308e-01, -2.59718627e-01,  2.05450878e-01,
	    -2.34293506e-01, -1.14616670e-01,  2.97809932e-02,  4.13955636e-02,
	    -2.14828197e-02, -2.15243548e-01,  1.73145697e-01, -1.16169997e-01},
	   {-2.89991379e-01, -5.00002384e-01, -1.69768885e-01, -1.61699831e-01,
	     1.06849670e-01,  4.35185768e-02, -2.68530667e-01,  8.06643665e-02,
	     1.89312086e-01, -3.68193865e-01, -7.58468509e-02, -1.69378355e-01},
	   { 4.22474891e-02, -1.29950400e-02,  1.45411223e-01,  2.04826947e-02,
	     6.58847213e-01,  8.38470086e-02, -1.97227269e-01, -1.91787377e-01,
	     2.60226279e-01, -3.55853736e-01, -1.03136472e-01,  8.51438493e-02}}},


	 {{{-2.35922307e-01,  8.00074711e-02, -4.44187939e-01, -1.66457549e-01,
	    -4.29093808e-01, -3.18780057e-02,  4.49988246e-01,  5.10991998e-02,
	    -1.07523717e-01,  8.47941265e-02, -4.42024972e-03,  4.23674025e-02},
	   { 2.22763002e-01,  1.07145384e-01, -1.84596479e-01,  4.14995067e-02,
	    -2.54314598e-02,  1.05841555e-01, -3.46703418e-02,  4.76895645e-02,
	     1.56859249e-01, -4.55653779e-02,  1.23404518e-01, -1.01914838e-01},
	   {-6.87219203e-02,  2.96908796e-01, -1.10955732e-02, -2.80602686e-02,
	     2.33123422e-01,  5.36803603e-02,  2.52752770e-02,  1.70943752e-01,
	     1.28429607e-01, -4.59727868e-02,  1.81536019e-01, -6.01105690e-02}},

	  {{-3.49832445e-01,  1.33880481e-01,  2.12917593e-03, -9.21780523e-03,
	     1.70763731e-01, -1.59279332e-01,  5.90657555e-02,  3.64752799e-01,
	     2.81438470e-01,  3.71354580e-01,  1.05044059e-02, -8.63531902e-02},
	   { 8.41265079e-03, -3.19629982e-02,  7.46713728e-02, -3.55346203e-02,
	     5.58480173e-02,  1.96314618e-01,  2.45787472e-01,  2.54102111e-01,
	    -2.24935070e-01,  1.04842313e-01, -9.25858989e-02,  9.52653959e-02},
	   {-8.54820684e-02,  4.48349975e-02,  1.23213097e-01, -4.35580872e-02,
	     1.31874578e-02,  2.53097802e-01,  2.29933619e-01,  4.18546936e-03,
	    -6.26284480e-02,  5.48853986e-02, -9.74406525e-02,  2.52950564e-02}},

	  {{-2.83917665e-01,  9.97954328e-03,  2.08251011e-02,  1.17083907e-01,
	     4.04354841e-01, -1.87916726e-01, -1.90118447e-01,  4.80712980e-01,
	     1.57175034e-01,  2.04161212e-01, -7.51210526e-02, -2.21039698e-01},
	   {-7.62985721e-02, -7.34208599e-02,  7.07343042e-01, -1.46372616e-01,
	     2.40205124e-01, -1.00681685e-01, -2.72878408e-01,  2.89663702e-01,
	    -2.71600932e-01,  1.22030549e-01, -1.06155179e-01, -6.36481643e-02},
	   { 3.62859398e-01,  9.53662675e-06,  3.33952248e-01,  1.23613656e-01,
	    -2.35128626e-02,  3.72976482e-01,  4.84479032e-02, -1.90649062e-01,
	    -5.60299397e-01,  1.88598707e-02, -5.23350202e-02, -4.43768576e-02}}},


	 {{{ 1.68944433e-01,  3.47988069e-01,  1.20334633e-01,  3.43949586e-01,
	    -5.05951121e-02, -3.88672315e-02,  1.20929748e-01,  7.34158009e-02,
	    -1.56163588e-01,  3.35437477e-01,  1.77294612e-01, -8.97462070e-02},
	   { 1.34393945e-01, -2.98080891e-01,  1.52747771e-02, -4.52993484e-03,
	     1.28644615e-01,  9.55418348e-02, -6.33773878e-02, -3.03711832e-01,
	    -1.48458481e-01,  7.02066272e-02, -1.27175838e-01, -1.45966962e-01},
	   { 1.26078054e-01, -6.35511041e-01,  2.38615185e-01, -1.01146840e-01,
	    -1.03651740e-01, -1.87041089e-01, -2.01258376e-01, -3.90777797e-01,
	    -6.79700971e-02, -1.93592861e-01, -2.26745367e-01, -1.02972612e-01}},

	  {{ 1.93351015e-01, -3.23009580e-01,  6.95171431e-02,  6.67644218e-02,
	     1.82507804e-03,  1.18382694e-02, -3.71325575e-02,  2.23832726e-01,
	    -4.44731116e-01,  2.62550920e-01,  2.85320342e-01, -1.84819028e-01},
	   { 1.07689351e-01, -6.73549831e-01, -5.73482960e-02, -7.92172402e-02,
	     6.22115694e-02,  6.89313263e-02, -2.24483386e-01,  7.55216405e-02,
	    -1.12496190e-01, -9.00423303e-02,  9.47424248e-02, -2.02944696e-01},
	   {-6.52179420e-02, -7.64605343e-01, -6.90030679e-02,  1.32413402e-01,
	     1.53073901e-02, -2.65701354e-01, -4.52645808e-01, -2.22151369e-01,
	     1.08357728e-01, -2.27162197e-01, -3.36297266e-02, -2.85414159e-01}},

	  {{ 2.54587382e-01, -1.55794010e-01,  6.68274937e-03, -2.16465797e-02,
	    -6.76538944e-02,  5.36068417e-02, -8.47879276e-02,  1.61579981e-01,
	    -2.56034315e-01,  4.52015817e-01,  6.45232499e-02, -1.67818755e-01},
	   { 4.27546769e-01, -4.40503180e-01,  1.03017174e-01, -4.86992374e-02,
	     2.36325905e-01,  1.14215150e-01, -1.20048486e-01,  2.08280236e-02,
	    -1.54574826e-01, -1.46314576e-01, -3.06987047e-01, -1.84593089e-02},
	   { 1.49489298e-01, -5.25259674e-01, -2.62690872e-01, -1.43624470e-01,
	     1.01372682e-01,  5.89950234e-02,  6.47247583e-02,  1.02327637e-01,
	     2.29195103e-01, -3.54519665e-01, -1.85688972e-01, -1.50752410e-01}}},


	 {{{ 1.62543014e-01,  1.52158096e-01, -6.07183240e-02,  1.71750680e-01,
	     1.02421886e-03,  6.70445152e-03,  2.58767366e-01, -1.78766251e-01,
	     1.00592524e-02,  2.57471770e-01,  9.98912826e-02,  2.09037736e-01},
	   { 1.72361970e-01,  2.67649516e-02, -3.27257961e-01,  1.61918581e-01,
	    -2.69302279e-01, -8.78740177e-02,  1.48630753e-01, -4.12425727e-01,
	    -1.12949282e-01,  1.34485364e-01,  5.06094813e-01,  1.05828039e-01},
	   { 1.06849642e-02,  1.43334910e-01, -2.09535152e-01,  1.81448177e-01,
	     5.41525632e-02, -1.55010596e-01,  1.46489397e-01, -1.58336893e-01,
	     5.58025986e-02,  2.14120913e-02,  2.29735464e-01, -6.96835890e-02}},

	  {{ 1.09330557e-01,  9.12894979e-02, -1.43169552e-01,  2.42817104e-01,
	    -1.47800520e-01, -7.63307437e-02,  1.63302138e-01, -1.31311372e-01,
	     1.75496805e-02,  2.50678033e-01,  2.92520314e-01,  1.76404491e-01},
	   {-3.36470813e-01,  9.91552472e-02, -5.70806682e-01, -1.36448694e-02,
	    -5.21916032e-01, -2.21858680e-01,  9.34970528e-02, -5.50144970e-01,
	     9.45148543e-02, -1.79602243e-02,  1.35672897e-01,  7.91145489e-02},
	   {-2.64984608e-01,  1.67269096e-01, -2.61403799e-01,  1.77188292e-01,
	    -4.95688349e-01, -4.37069207e-01,  1.29339904e-01, -3.35066676e-01,
	     1.19225711e-01, -1.41371995e-01,  5.95594905e-02, -1.11810252e-01}},

	  {{-1.07182145e-01,  7.40647763e-02, -4.50041026e-01, -2.48006247e-02,
	    -3.10597420e-01, -3.20336103e-01,  1.78031102e-02, -3.64764184e-01,
	    -1.58792898e-01, -3.03563774e-01, -6.90091923e-02, -5.05263321e-02},
	   {-5.27487874e-01,  2.98225265e-02, -8.06902409e-01, -1.96017195e-02,
	    -5.06734312e-01, -7.30816543e-01,  1.29940391e-01, -5.66696227e-01,
	    -7.90985152e-02, -2.91007403e-02,  2.93443054e-01,  9.30725634e-02},
	   {-4.34025526e-01,  5.83169013e-02, -2.57703662e-01,  1.68060977e-02,
	    -4.03180391e-01, -7.15195477e-01,  2.72460449e-02, -2.54289567e-01,
	     3.71118486e-02, -1.44766374e-02,  2.17053711e-01,  4.40834614e-04}}},


	 {{{ 2.71706600e-02,  5.87315820e-02, -1.77438080e-01, -8.59432667e-02,
	    -5.35563156e-02,  1.28587201e-01,  3.03134397e-02,  2.39904225e-01,
	     5.02119256e-05, -2.22535804e-01, -2.46008307e-01,  2.10009873e-01},
	   {-1.43025160e-01,  1.48464918e-01, -2.03631684e-01, -3.86377424e-02,
	     1.53976545e-01, -1.10238388e-01, -1.11435212e-01,  3.45883071e-01,
	     2.21991688e-01,  1.06759772e-01, -6.10926636e-02, -1.97374284e-01},
	   {-1.26237974e-01,  1.89483359e-01, -2.56189048e-01, -3.86922628e-01,
	     2.05521565e-02, -3.29378434e-02, -2.50829846e-01, -6.59302101e-02,
	     1.11031570e-01, -1.69581741e-01, -4.10820544e-01,  4.87775467e-02}},

	  {{ 1.85927689e-01, -1.32490516e-01,  1.49264202e-01,  1.01723351e-01,
	     2.62270540e-01,  1.30532011e-01, -1.18938107e-02,  3.68207365e-01,
	     1.57480851e-01, -9.76219848e-02, -1.33473575e-01,  2.62591302e-01},
	   { 1.20275758e-01,  9.06512588e-02, -1.85870647e-01, -7.64683783e-02,
	    -6.05503917e-02, -6.63544238e-02,  7.11862743e-02,  8.14647749e-02,
	    -1.75670430e-01,  1.29539832e-01,  8.91586915e-02,  1.58068478e-01},
	   {-3.47129941e-01,  1.19483825e-02, -6.40016854e-01, -6.19576693e-01,
	    -1.44224077e-01, -1.99848756e-01, -1.01443879e-01,  3.25758085e-02,
	     2.94240378e-02,  3.68320569e-02, -2.85046101e-01,  1.04202121e-01}},

	  {{ 7.39945024e-02, -7.65299350e-02,  2.80277878e-01,  1.92159906e-01,
	     4.28961098e-01,  1.33340195e-01, -4.75247577e-02,  1.91340432e-01,
	     2.75551945e-01,  2.58325994e-01,  1.89517513e-01, -5.75160794e-02},
	   {-9.35575925e-03,  5.15814200e-02, -1.61299124e-01,  1.05261318e-02,
	    -6.87832087e-02,  2.59822607e-01,  1.39442757e-01,  1.39882341e-01,
	     3.18558924e-02, -5.72039671e-02,  1.77118286e-01,  2.45532870e-01},
	   {-2.20031843e-01,  5.50235342e-03, -6.35565698e-01, -4.84660536e-01,
	    -2.42944717e-01,  2.26192959e-02,  9.26617533e-02,  1.19781110e-03,
	     4.09643978e-01, -1.59268707e-01, -1.98286563e-01,  1.02677077e-01}}},


	 {{{ 2.31051929e-02, -3.57858360e-01, -2.01979890e-01, -3.46549988e-01,
	    -6.53362349e-02, -9.14181098e-02, -3.75387281e-01, -1.48998588e-01,
	     7.70225842e-03, -3.38489115e-01,  2.08887290e-02, -4.63865288e-02},
	   { 1.43332034e-01, -1.89382866e-01, -1.29813803e-02, -7.51038790e-02,
	     2.29556695e-01,  6.80335537e-02, -6.08626828e-02, -1.69019271e-02,
	     5.07697240e-02, -3.41453366e-02, -1.02438353e-01,  1.20743804e-01},
	   { 1.41107142e-01,  6.23075962e-01, -1.55544698e-01,  2.36340631e-02,
	    -1.08333535e-01,  8.74732658e-02,  6.53580502e-02, -1.04682371e-01,
	    -1.08753450e-01, -1.14187457e-01, -1.53500900e-01,  1.13964438e-01}},

	  {{ 7.26935714e-02, -3.48671615e-01, -2.92626079e-02, -9.99101847e-02,
	    -3.41959178e-01, -9.34294909e-02, -2.96031028e-01,  4.17624414e-02,
	    -1.46959171e-01, -2.03285620e-01, -1.32879570e-01,  5.08538224e-02},
	   { 2.07457453e-01, -2.38647744e-01,  5.82718514e-02,  3.03233676e-02,
	    -1.51866525e-02,  5.05636483e-02,  1.23100862e-01, -6.95413128e-02,
	     8.06745589e-02, -1.72533855e-01, -9.57509503e-02,  6.11929782e-02},
	   { 4.52967674e-01,  9.29464120e-04, -1.11419849e-01,  1.37444481e-01,
	    -4.59971018e-02,  3.47779632e-01,  4.10738319e-01, -2.38685459e-01,
	    -3.53153795e-01, -8.52702036e-02,  2.72381216e-01,  3.12285945e-02}},

	  {{ 2.55311579e-02, -4.71797865e-03,  1.13032036e-01, -6.29827157e-02,
	    -1.54815614e-02, -3.51040125e-01, -3.94700766e-01, -1.40762730e-02,
	    -1.11136198e-01, -1.93644240e-02, -6.54607937e-02, -8.32076818e-02},
	   { 3.80182981e-01, -4.63528723e-01,  5.35073988e-02, -3.92468050e-02,
	     3.31260622e-01, -1.65903255e-01,  6.90440089e-02,  5.28438836e-02,
	     7.45530948e-02,  1.24785706e-01,  2.93822661e-02,  5.25877550e-02},
	   { 1.31291002e-01, -1.04070731e-01,  2.97506414e-02, -1.22751882e-02,
	     8.57025534e-02,  2.33338192e-01, -6.80859014e-02, -1.50957644e-01,
	    -2.52992153e-01, -1.63429782e-01,  1.74392745e-01,  2.50187039e-01}}},


	 {{{-1.35186806e-01, -1.92889512e-01,  1.00776196e-01,  3.92793491e-02,
	     2.04333588e-02, -6.13418892e-02, -5.06091774e-01,  1.99171543e-01,
	     6.46582246e-02, -8.36649612e-02, -1.06202938e-01, -9.35371518e-02},
	   { 6.59346804e-02, -2.94785470e-01,  9.39744040e-02,  6.29635751e-02,
	     5.98992221e-02, -4.08624113e-03, -2.48377502e-01,  6.46168217e-02,
	    -6.93820417e-02,  1.94043159e-01,  1.51757285e-01, -5.78857064e-02},
	   {-1.05668670e-02, -3.70233145e-04,  2.36251578e-01,  5.85133955e-02,
	     5.16091138e-02, -4.48825471e-02, -1.55877441e-01,  1.32279878e-03,
	    -8.61377195e-02,  1.72960386e-01,  2.86458731e-01,  5.10123894e-02}},

	  {{-2.12877959e-01, -2.67019808e-01, -2.02020016e-02,  1.00421391e-01,
	    -4.38270206e-03, -4.03876036e-01, -7.43195832e-01, -1.88792855e-01,
	     9.76407900e-03, -2.41610169e-01, -1.20418146e-01,  5.99784683e-03},
	   {-2.29383424e-01, -4.75734085e-01, -9.82850231e-03,  1.58030260e-02,
	    -6.67697191e-02, -4.41069871e-01, -8.37728381e-01,  2.25059763e-02,
	     8.34662765e-02, -1.15420092e-02, -5.61805293e-02, -7.94875845e-02},
	   { 2.28270680e-01, -6.83487236e-01,  2.48848304e-01, -4.93858717e-02,
	     1.07614666e-01, -3.69548947e-01, -6.48202837e-01,  7.87184089e-02,
	    -3.53142291e-01, -1.23770587e-01,  2.29112163e-01, -3.09843104e-02}},

	  {{-9.44702849e-02, -1.87111765e-01,  3.00295889e-01,  2.03978568e-01,
	     2.98255533e-01, -3.52592677e-01, -1.88787490e-01, -1.46618396e-01,
	     2.34468549e-01,  1.50810331e-01,  1.03317395e-01,  3.56809120e-03},
	   {-1.37616619e-01, -1.66235805e-01,  2.27639973e-02,  1.48451999e-01,
	     1.04484282e-01, -2.99486339e-01, -4.61389631e-01,  1.18402973e-01,
	    -4.86327820e-02, -1.78106174e-01,  9.04448405e-02,  5.93075855e-03},
	   {-1.73958912e-01, -6.56934619e-01, -3.08898166e-02, -1.61729425e-01,
	     3.99374098e-01, -4.85810459e-01, -5.15694857e-01,  4.35433909e-02,
	    -5.95102273e-02, -2.27405757e-01,  1.06323510e-01,  6.76706154e-03}}},


	 {{{ 1.07621320e-01, -2.39063099e-01,  2.38873497e-01, -2.13659182e-01,
	     1.81518063e-01,  8.62805545e-02,  1.15424201e-01,  6.67572394e-02,
	    -1.37584567e-01,  2.06050482e-02, -6.43257648e-02, -6.66584074e-02},
	   { 2.33158082e-01, -1.81184426e-01,  1.22549042e-01, -1.12020992e-01,
	     5.61263599e-02,  1.56166255e-01,  8.52998793e-02, -6.76659122e-02,
	     1.69476215e-02,  1.46224201e-01,  4.51969989e-02, -2.35705927e-01},
	   { 9.98635516e-02,  3.55172276e-01, -8.95381719e-02, -1.77554801e-01,
	     2.57465720e-01, -2.81708278e-02, -7.03798160e-02,  6.12613671e-02,
	     1.24513162e-02,  4.40857977e-01,  6.67260349e-01, -5.76460622e-02}},

	  {{ 8.63663182e-02, -2.22198918e-01, -4.03722227e-02, -1.53988466e-01,
	     8.68040547e-02,  1.57471016e-01, -1.10936940e-01, -2.83908527e-02,
	    -1.12296671e-01, -1.57602265e-01, -9.36363265e-02, -9.09749940e-02},
	   { 2.66425312e-01, -1.48268715e-01,  8.98909196e-02,  7.88822025e-02,
	    -9.28164050e-02,  1.83679387e-01,  6.63053766e-02,  3.00884240e-05,
	    -2.10421771e-01,  1.41517773e-01, -6.65850937e-03, -9.14223194e-02},
	   {-9.14157182e-02,  3.13362062e-01, -3.43937248e-01,  5.91584258e-02,
	    -5.76666035e-02,  7.95648694e-02, -4.48725978e-03, -4.12449427e-02,
	     7.09147602e-02,  3.98064852e-01,  1.82108894e-01, -5.69579862e-02}},

	  {{-7.02460557e-02, -3.38994831e-01, -8.72791000e-03, -1.59346074e-01,
	    -5.79788089e-02,  2.54881948e-01, -2.11311981e-01, -1.09082170e-01,
	    -2.47351766e-01,  4.28706110e-02, -1.88008264e-01,  1.93086881e-02},
	   { 1.24820858e-01, -1.97067454e-01,  2.45360047e-01, -8.70563164e-02,
	    -2.12784961e-01,  2.80882150e-01, -2.00067639e-01, -1.23060226e-01,
	    -2.42378891e-01,  7.71219879e-02, -5.70586175e-02, -6.97494149e-02},
	   { 1.40564531e-01,  4.86701995e-01, -2.09172666e-01, -2.12944318e-02,
	    -1.60162315e-01,  3.87599617e-01,  6.70489743e-02, -9.29291174e-02,
	    -2.06486303e-02,  1.32011160e-01,  8.58592018e-02, -7.48482570e-02}}},


	 {{{-8.92262086e-02,  9.64102075e-02,  3.07503133e-03, -2.35706955e-01,
	     1.49710193e-01, -1.93383306e-01, -2.26258516e-01,  5.68812452e-02,
	    -4.02876325e-02,  1.53632918e-02,  9.82393846e-02,  1.15698036e-02},
	   {-4.10039425e-01,  2.16741383e-01, -2.24834546e-01, -2.92267263e-01,
	    -2.00393662e-01,  6.40801787e-02, -1.65243819e-01, -8.26853141e-02,
	     6.99284971e-02, -1.49310708e-01, -9.13623348e-02, -1.51560279e-02},
	   {-2.99158752e-01,  9.74002481e-02, -1.83215871e-01,  2.65777826e-01,
	    -4.23501968e-01,  9.21175107e-02,  5.36099896e-02, -2.17235595e-01,
	     1.39100194e-01, -2.14229718e-01, -2.45356530e-01, -1.69603214e-01}},

	  {{-1.43116936e-01,  9.60642025e-02, -1.12393267e-01, -3.29091758e-01,
	    -1.27696186e-01, -1.81419253e-01,  1.17899731e-01,  9.76244807e-02,
	     6.46474212e-02,  1.16109103e-01,  1.11843362e-01, -9.81078520e-02},
	   {-5.83752930e-01, -7.65793920e-02, -4.35168743e-01, -3.26349407e-01,
	    -1.87849998e-01, -1.41898260e-01,  1.01668745e-01, -1.05578959e-01,
	     1.10671110e-01,  7.22697824e-02,  1.66301522e-02, -1.52561754e-01},
	   {-3.01511914e-01,  1.32104605e-01, -1.96785226e-01,  8.20140392e-02,
	    -4.74415310e-02,  3.02042425e-01,  1.78000838e-01, -6.28120750e-02,
	     9.28300172e-02,  1.82803273e-01, -1.40910655e-01, -6.76325411e-02}},

	  {{-1.50146455e-01,  4.23794061e-01,  1.67591691e-01, -1.90706775e-01,
	     8.60093161e-02, -2.21315041e-01, -5.73459193e-02, -1.34528905e-01,
	     1.49858296e-01,  2.57785380e-01, -7.53321052e-02,  7.74712637e-02},
	   {-3.55444312e-01,  7.77663514e-02, -2.99756415e-02, -2.89407134e-01,
	    -5.93537800e-02, -2.53741175e-01,  8.72553268e-04, -6.51218370e-02,
	     1.42810985e-01,  1.88161492e-01, -3.00631169e-02, -4.80964668e-02},
	   {-6.95873797e-02,  6.26617789e-01, -1.18719406e-01, -7.35703930e-02,
	    -1.29546255e-01,  1.13128237e-01,  7.59012923e-02, -2.47923702e-01,
	    -6.49196981e-03,  1.15733951e-01,  3.51146385e-02,  1.01441890e-01}}},


	 {{{-2.90752441e-01,  4.69791815e-02, -3.23629797e-01,  2.83345580e-01,
	    -1.93410829e-01,  1.23508565e-01,  2.63711959e-01,  2.33670130e-01,
	    -1.00780696e-01, -5.51603809e-02, -5.09302169e-02, -1.18241303e-01},
	   {-3.34430665e-01, -9.07557681e-02, -4.66580808e-01, -1.04241639e-01,
	    -4.35217947e-01, -1.50546327e-01, -2.06630632e-01,  1.21636093e-02,
	    -1.04949348e-01,  1.47464812e-01,  2.12786198e-01, -7.50980899e-02},
	   {-1.95092142e-01, -1.00335129e-01, -3.07190418e-01, -2.94776279e-02,
	    -5.76497093e-02,  8.07006657e-03, -1.00948699e-01, -3.73102329e-03,
	    -1.27483949e-01,  1.46957383e-01,  5.21773577e-01, -1.46457717e-01}},

	  {{-4.71457034e-01,  1.20489255e-01, -2.26786703e-01,  4.04293425e-02,
	    -4.46269184e-01, -2.08212450e-01,  6.32066056e-02, -7.76550993e-02,
	     1.86694905e-01,  2.23464295e-01,  7.35391378e-02, -1.25318870e-01},
	   {-3.58572781e-01,  3.44468355e-02, -4.98738110e-01,  1.67437106e-01,
	    -2.22915679e-01,  9.28873755e-03, -6.85641021e-02, -1.40612021e-01,
	     1.52652472e-01, -8.91347080e-02,  3.48717958e-01, -9.25944895e-02},
	   {-5.80537803e-02, -1.55211076e-01, -3.26326966e-01,  1.45997912e-01,
	    -6.43607453e-02,  1.19773507e-01, -4.75998223e-02, -2.22534761e-02,
	     1.08618461e-01, -1.41473934e-02,  2.45603725e-01, -1.73305139e-01}},

	  {{-2.33972415e-01,  2.03592964e-02,  3.12682480e-01, -2.27922857e-01,
	     2.77122587e-01, -6.79904878e-01, -2.37500027e-01,  5.95742106e-01,
	    -5.55540100e-02,  9.72695649e-02,  5.86894341e-02,  7.79699385e-02},
	   {-3.17243308e-01,  7.72200674e-02,  1.69802219e-01,  5.68746962e-02,
	    -2.93991804e-01,  1.89079717e-01,  1.32154882e-01, -2.34317958e-01,
	    -1.10919148e-01,  9.59278941e-02,  2.98756719e-01, -3.79975699e-02},
	   { 1.72201380e-01,  7.15295598e-02, -3.85129489e-02, -1.06423590e-02,
	    -2.43364468e-01,  4.20608908e-01,  9.90346745e-02, -1.16447784e-01,
	    -1.64631099e-01,  6.59564659e-02,  3.79244745e-01,  1.17149420e-01}}},


	 {{{-6.55057803e-02,  2.45308012e-01, -3.86340767e-02,  1.66728515e-02,
	    -1.11612789e-02, -3.17939758e-01,  1.64590135e-01,  7.88872838e-02,
	     1.42675743e-01,  5.71876943e-01,  2.85949379e-01,  1.48226526e-02},
	   { 8.10675025e-02,  3.49174291e-02,  1.00084081e-01, -7.80497789e-02,
	    -3.77038382e-02, -3.85420442e-01, -1.48055822e-01, -2.84833282e-01,
	    -6.69866726e-02,  3.17626819e-02, -6.66113645e-02, -1.02625817e-01},
	   { 1.71570703e-01, -2.85021216e-01,  1.18655898e-01, -3.03613096e-01,
	    -4.62541031e-03, -5.72872162e-02, -1.37479052e-01, -4.05360937e-01,
	    -2.09742367e-01, -5.34825921e-01, -4.20968890e-01,  7.56902918e-02}},

	  {{-1.08031020e-01,  3.81931782e-01, -3.27328712e-01,  5.27881458e-02,
	     1.03162102e-01, -3.12872410e-01, -1.27115920e-02,  2.96196818e-01,
	     2.44708389e-01,  1.84419341e-02,  8.14990029e-02,  8.24429393e-02},
	   {-6.36869967e-02,  1.53447196e-01,  1.38087094e-01,  8.20089728e-02,
	    -7.18616764e-04, -3.58776152e-01, -1.03168547e-01,  1.86257884e-01,
	     3.37377489e-01,  2.44344354e-01,  2.91319620e-02, -3.19393864e-03},
	   { 5.25980815e-02, -4.51945573e-01,  1.40179276e-01, -1.76191181e-02,
	     3.06151733e-02, -1.08945109e-01, -3.45470548e-01, -2.73087412e-01,
	    -1.21456161e-01, -4.37634766e-01, -3.87321979e-01, -7.78614730e-02}},

	  {{-6.93001822e-02,  3.44493598e-01, -3.29337031e-01, -8.87566991e-03,
	    -1.03568740e-01, -6.86055273e-02,  3.11163455e-01,  1.65312350e-01,
	     7.35870078e-02,  1.07809886e-01,  5.21827489e-02,  1.86132535e-01},
	   { 5.90196885e-02, -2.62864716e-02,  2.23448738e-01,  1.80691015e-03,
	    -1.96774259e-01, -2.24356592e-01,  1.04965083e-01,  1.01662539e-01,
	    -7.24405572e-02,  2.40487158e-01,  2.95822114e-01,  3.13489174e-04},
	   { 2.54131377e-01,  4.66076434e-02,  4.83091861e-01,  4.06576730e-02,
	    -5.25620766e-02, -9.20561701e-02, -2.56914675e-01, -1.06931873e-01,
	    -1.58162460e-01, -1.28488585e-01, -6.36615902e-02, -2.30768993e-01}}},


	 {{{-6.23843409e-02, -1.78115249e-01, -1.02693312e-01,  1.58339262e-01,
	     2.66551971e-01, -3.96486551e-01, -1.27809852e-01,  2.52863675e-01,
	     7.74980187e-02,  1.54369324e-01,  1.67282522e-01, -4.43213917e-02},
	   { 7.77910426e-02,  1.11760378e-01,  5.12588117e-03, -1.07837036e-01,
	     1.32924482e-01, -3.72663468e-01, -3.01182568e-01,  1.72495291e-01,
	     7.73438066e-02,  2.56157406e-02,  2.99136966e-01,  1.29657267e-02},
	   { 1.12024434e-01,  5.90862408e-02, -4.72778790e-02, -8.21747351e-03,
	     2.18076423e-01,  8.37619305e-02, -1.99382141e-01,  7.29677547e-03,
	    -1.11656776e-02,  1.97675392e-01,  1.81285277e-01, -8.18059966e-02}},

	  {{-2.60317326e-01,  1.79160342e-01, -7.59449452e-02, -1.12552665e-01,
	    -2.09974106e-02, -5.49651623e-01, -8.99664909e-02,  2.28214577e-01,
	     1.04515225e-01,  2.36086041e-01,  2.02947222e-02, -8.83837044e-02},
	   {-1.60731137e-01, -9.90602747e-02,  7.48585686e-02, -1.47163838e-01,
	    -2.59827380e-03, -8.69601071e-01, -1.11799158e-01,  1.51371092e-01,
	     1.31690040e-01,  1.52238533e-01,  1.84078589e-01, -1.36742607e-01},
	   { 3.63347307e-02,  4.69305664e-02, -1.18326433e-01, -2.68731147e-01,
	     4.14822847e-02, -1.73059270e-01, -3.23874652e-01,  9.07171071e-02,
	     7.72154182e-02,  3.20431851e-02,  3.35758656e-01, -8.74777511e-02}},

	  {{-2.88520187e-01,  1.70670092e-01, -3.02158799e-02,  1.57325007e-02,
	    -1.20831273e-01, -9.49554443e-02,  5.90573177e-02,  3.10457379e-01,
	     2.61933684e-01,  5.90901300e-02, -4.25823443e-02, -1.68998495e-01},
	   {-2.71289706e-01,  1.49446532e-01,  1.46620452e-01,  4.59786244e-02,
	     9.69373435e-02, -4.09081459e-01, -1.21083759e-01,  2.68321872e-01,
	     5.91184646e-02,  1.37501255e-01,  5.58843911e-01, -6.34212717e-02},
	   {-3.57817024e-01,  9.78433713e-02, -5.81258610e-02, -1.46739498e-01,
	     1.46002099e-01, -3.55063111e-01, -2.70670831e-01,  3.24397296e-01,
	     4.72963750e-02,  1.59262761e-01,  1.46328360e-01, -1.52125061e-01}}}};
		#pragma HLS RESOURCE variable=conv2D_4_kernels core=ROM_2P

			const quant_t conv2D_4_biases[28] = {-0.12000199  , -0.2347641   , -0.0071338075, -0.07164099  ,  0.018523999 ,
	 -0.4980329   ,  0.06349314  , -0.13807836  ,  0.305741    , -0.34466666  ,
	 -0.71675926  , -0.03104342  , -0.0070845666, -0.46706676  , -0.03185962  ,
	  0.014920885 , -0.014730916 , -1.0097971   ,  0.01944108  ,  0.35143688  ,
	  0.23092909  ,  0.08204739  , -0.0038541039, -0.658236    ,  0.15975942  ,
	 -0.37956348  , -0.02883398  , -0.29792613  };

			const quant_t conv2D_5_kernels[24][1][1][28] = {{{{ 4.23616439e-01, -2.06871573e-02, -7.20420480e-01, -6.73679769e-01,
	    -2.39728749e-01, -3.92584324e-01,  2.42013678e-01, -7.31137544e-02,
	     2.58987695e-01,  1.48174644e-01,  1.69905618e-01,  1.66512042e-01,
	    -3.30464512e-01, -1.46961004e-01, -2.92171966e-02, -2.73276150e-01,
	    -3.92238684e-02, -3.82916480e-01, -9.03070942e-02,  6.57803893e-01,
	    -2.59750128e-01, -1.21368237e-01, -3.74266542e-02, -3.79396945e-01,
	    -2.43621632e-01, -8.38317499e-02, -4.32003796e-01,  4.39643152e-02}}},


	 {{{ 4.28656638e-01, -6.68941215e-02, -1.59379512e-01, -3.02640319e-01,
	     2.07350820e-01,  1.08513251e-01,  4.69189361e-02, -8.08278192e-03,
	     1.31544054e-01,  7.63040304e-01, -1.64956316e-01,  1.51862070e-01,
	     1.74987197e-01,  7.44732201e-01, -3.15758675e-01, -4.13173325e-02,
	    -2.12195933e-01, -2.92736351e-01, -2.33937812e-04,  5.65371625e-02,
	    -5.70253320e-02,  5.07523492e-02, -5.16993821e-01, -2.42261112e-01,
	     3.80379595e-02,  1.04307383e-01, -1.20329984e-01, -1.51929483e-01}}},


	 {{{-9.89697650e-02,  8.82016659e-01, -6.31342590e-01,  1.33457661e-01,
	    -2.75718600e-01, -3.45388323e-01,  1.35670424e-01, -3.32203776e-01,
	    -2.92752087e-01,  2.29010694e-02, -9.10205022e-02, -3.70752960e-01,
	     5.83826482e-01, -3.76975417e-01, -3.74387622e-01, -1.85063496e-01,
	    -9.83884931e-02,  9.76908505e-02,  1.33619398e-01, -3.00428569e-01,
	     3.02938502e-02,  2.56722025e-03, -1.17033355e-01, -2.89237678e-01,
	    -2.64560461e-01,  2.77375340e-01, -3.01912546e-01, -2.31435642e-01}}},


	 {{{ 4.82894992e-03, -9.30461764e-01,  8.79860148e-02,  2.33846158e-01,
	    -9.87394676e-02, -7.83550501e-01, -3.47366244e-01, -1.46757245e-01,
	    -9.68625784e-01, -1.33511662e-01, -8.79224241e-02, -2.33466569e-02,
	    -1.21643759e-01,  2.80413121e-01, -1.46798659e-02, -8.40639975e-03,
	    -3.50617349e-01, -7.95890689e-01, -4.93094660e-02,  8.24676812e-01,
	     4.41831090e-02,  2.39894211e-01,  1.57443061e-01,  3.24306905e-01,
	     5.73309064e-01, -1.83285207e-01,  6.46755397e-02, -5.39467856e-02}}},


	 {{{-1.35624424e-01, -2.93393165e-01,  8.19022655e-02,  2.89148577e-02,
	    -3.28072429e-01, -1.16002202e-01,  2.03281507e-01, -2.79745758e-01,
	    -1.29425392e-01, -6.43188417e-01, -3.31343740e-01, -2.40472388e-02,
	     3.87629986e-01,  3.48811150e-01,  1.73376158e-01,  1.11882508e+00,
	     4.15070951e-02, -1.92038432e-01, -3.69946003e-01,  3.03680301e-02,
	    -3.07698280e-01, -3.53343599e-02, -3.17488499e-02,  9.30886269e-02,
	    -2.61975676e-01, -2.25054517e-01,  7.65387192e-02,  7.63524845e-02}}},


	 {{{-2.88559240e-03, -2.48927206e-01, -9.63251516e-02, -1.02129899e-01,
	     3.37690562e-02,  2.26581261e-01,  7.76299536e-02,  2.60783285e-01,
	    -4.40195249e-03, -1.34850875e-01,  2.75993615e-01, -2.56430320e-02,
	     1.07957460e-01, -2.28166327e-01, -3.91717821e-01,  4.31028567e-02,
	     1.12771881e+00, -2.16656268e-01,  5.66942133e-02, -2.98408652e-03,
	     3.50636169e-02,  1.09481469e-01, -2.67917633e-01, -1.22152545e-01,
	    -4.57764370e-03, -3.13207895e-01, -3.58593352e-02, -4.03688520e-01}}},


	 {{{ 1.00365929e-01, -3.25499237e-01,  1.14606217e-01,  3.71041536e-01,
	     4.36247606e-03,  7.97231257e-01, -1.50759399e-01, -2.19338790e-01,
	    -3.60974997e-01,  6.76414147e-02, -2.53145218e-01, -5.91748893e-01,
	    -2.82481402e-01, -1.88281596e-01, -2.08870575e-01,  9.79269743e-02,
	    -1.66077957e-01, -1.59646124e-01, -4.95679583e-03, -1.44086272e-01,
	     3.41758914e-02,  6.95787370e-01, -8.14492479e-02,  7.57463872e-02,
	    -3.26782405e-01, -1.25961050e-01,  1.96062494e-02, -2.86216557e-01}}},


	 {{{-1.09450586e-01, -1.76328078e-01, -2.97987878e-01, -4.84992564e-01,
	     5.70828497e-01,  2.25017238e-02, -5.83312154e-01,  2.20841020e-02,
	    -2.88974404e-01, -1.17925867e-01, -2.57316709e-01, -2.11203828e-01,
	     1.12157118e+00, -5.32541156e-01,  1.43064201e-01, -1.73898265e-01,
	    -2.87868977e-01,  1.56124637e-01, -3.79732519e-01, -6.70793414e-01,
	    -2.86507338e-01,  2.24251255e-01, -4.14165994e-03,  1.59578353e-01,
	     2.82895863e-01, -8.08789656e-02, -3.09234828e-01, -2.05556169e-01}}},


	 {{{ 8.89530003e-01, -3.57948720e-01,  3.03383078e-02,  6.96150213e-02,
	    -1.09784946e-01, -2.24952027e-01, -5.15685737e-01,  2.32303858e-01,
	    -5.03808618e-01,  1.79107070e-01, -1.90351710e-01,  1.59107044e-01,
	     2.29413107e-01, -4.50570464e-01, -2.81488270e-01, -5.75424433e-02,
	     2.69289494e-01, -3.53140503e-01, -2.92253405e-01,  2.13064149e-01,
	    -6.31780088e-01,  3.30479681e-01, -5.94612658e-01,  7.79285073e-01,
	    -4.98342812e-01, -3.22598010e-01,  2.62180548e-02, -1.76640570e-01}}},


	 {{{-1.47549272e-01,  7.70754158e-01,  2.74729580e-01, -3.40010554e-01,
	    -5.86366892e-01,  1.49242505e-01,  2.58567184e-01,  3.09974365e-02,
	    -1.27062619e-01,  2.81755719e-02,  7.83208832e-02,  3.47719826e-02,
	    -2.29499072e-01, -2.60322690e-01,  2.34711275e-01, -7.08491653e-02,
	    -3.43507320e-01, -4.70288843e-01, -3.74916941e-02,  5.89145899e-01,
	    -7.60647833e-01, -5.23044821e-03, -3.89989614e-01, -5.86157292e-02,
	     1.78045034e-01,  1.29793927e-01, -4.90353197e-01, -9.14553881e-01}}},


	 {{{ 9.48278699e-03, -3.77139568e-01,  1.73748940e-01,  1.49527550e-01,
	    -1.36828557e-01,  2.06776887e-01,  1.66509911e-01,  3.39343309e-01,
	    -3.08703363e-01,  5.40919341e-02,  2.29140311e-01, -2.45044291e-01,
	    -6.57250881e-02, -1.91260710e-01, -8.48936737e-02, -9.67784002e-02,
	     2.69938707e-02, -2.66120493e-01,  1.03803270e-01,  4.88338411e-01,
	    -2.00080592e-02, -1.59790963e-02, -4.30144630e-02,  4.09461558e-03,
	    -2.83985525e-01,  5.14627993e-01, -5.83934635e-02,  3.93882483e-01}}},


	 {{{-1.82422817e-01,  2.07957402e-01, -1.26633584e-01,  4.05702084e-01,
	     6.51787519e-02, -3.14447403e-01, -1.51281701e-02,  1.53823137e-01,
	     7.08052597e-04, -7.00754598e-02,  6.55326769e-02, -1.35317907e-01,
	    -1.28270730e-01,  3.76977682e-01,  1.42611235e-01, -9.77323577e-03,
	     5.45693859e-02, -4.59603369e-01,  5.44134676e-01,  4.24138606e-01,
	     1.49301738e-01, -3.88568491e-01, -2.92881489e-01, -2.43273079e-01,
	    -2.81788498e-01, -5.26074767e-01,  6.76422775e-01, -2.52480060e-01}}},


	 {{{ 1.35515794e-01, -6.36358857e-02,  1.36429399e-01, -3.39818150e-01,
	    -1.79198712e-01,  3.13560277e-01,  1.01293421e+00, -1.01410814e-01,
	     2.69834429e-01,  8.53589848e-02,  5.95114768e-01,  8.98031145e-02,
	     4.51785475e-01, -2.13563487e-01, -5.47770739e-01,  8.63529220e-02,
	     1.05685063e-01, -1.59854069e-01, -8.14782158e-02, -3.42353374e-01,
	     1.32321566e-01, -4.02251124e-01, -3.08225542e-01, -3.52194875e-01,
	    -3.78488183e-01, -1.25295743e-01,  9.44543071e-03, -3.16004604e-01}}},


	 {{{-2.78967172e-01, -2.13323444e-01, -2.20007785e-02, -2.56737202e-01,
	    -3.57793897e-01, -7.39117041e-02,  2.47803986e-01, -7.19365776e-02,
	     1.95218772e-01, -4.97442409e-02,  3.74692917e-01, -1.32054582e-01,
	    -3.84288341e-01,  6.30404234e-01, -3.52580808e-02, -2.02896729e-01,
	     1.82276204e-01,  4.23546284e-01, -1.98984087e-01, -4.10137743e-01,
	    -5.38644314e-01, -3.60826790e-01,  6.17889240e-02,  3.15197527e-01,
	    -4.76377219e-01,  5.59897780e-01, -6.14621155e-02,  3.86716463e-02}}},


	 {{{ 2.86796838e-02, -1.74704090e-01, -4.57216650e-02,  4.89463151e-01,
	    -2.79473275e-01,  2.29218841e-01,  6.42612725e-02,  2.13115484e-01,
	    -3.24470520e-01, -1.09746613e-01,  1.70970991e-01, -5.28401555e-03,
	     2.12354109e-01, -8.55578706e-02,  8.78582478e-01, -4.96194750e-01,
	    -9.54528749e-02,  9.56367180e-02,  3.98721009e-01, -3.46995205e-01,
	     4.73670624e-02,  1.73256397e-01,  4.04121913e-02, -6.00755513e-01,
	    -1.31148100e-01,  3.04150321e-02, -5.93325868e-02, -7.05375746e-02}}},


	 {{{-3.85983102e-02,  1.29309326e-01,  1.18444748e-01, -2.58183062e-01,
	     1.24939010e-01, -2.39561409e-01,  5.19325659e-02,  1.83255538e-01,
	    -3.17536920e-01, -1.49921551e-01,  6.70153618e-01, -1.92032397e-01,
	    -2.55647879e-02,  3.68513875e-02, -2.16664132e-02, -5.02455160e-02,
	    -1.92459255e-01,  1.80285603e-01, -2.26423368e-01, -2.14018732e-01,
	     4.00939733e-01,  2.29626283e-01,  3.58841717e-01,  1.77374184e-01,
	     3.12930048e-02, -8.15674588e-02, -4.10942361e-03, -2.51613975e-01}}},


	 {{{ 2.42119893e-01, -1.49985358e-01,  4.10644829e-01,  1.72698125e-01,
	     8.54172558e-02, -2.78788107e-03, -4.22470808e-01, -1.08901002e-01,
	     2.47122362e-01,  1.92505345e-01, -1.20912641e-01, -1.54810369e-01,
	     9.09879059e-02, -2.83523440e-01, -1.86980907e-02,  1.43785834e-01,
	    -1.22622199e-01,  1.75406486e-01,  5.94087362e-01, -4.71900612e-01,
	    -5.33035159e-01, -7.69710466e-02, -5.65013885e-01,  1.00861944e-01,
	    -3.39030743e-01, -1.90134659e-01,  7.10173309e-01,  1.15391769e-01}}},


	 {{{-3.31438303e-01, -4.74208385e-01, -4.05831426e-01,  2.29922399e-01,
	    -3.57042521e-01,  4.76597436e-03, -1.74048200e-01,  3.10256660e-01,
	     7.25712776e-01,  1.16117202e-01, -3.61232571e-02,  1.81022678e-02,
	     1.00532077e-01,  1.67025238e-01, -2.16882318e-01, -1.08421400e-01,
	    -1.02303870e-01, -2.25463852e-01,  4.00947243e-01,  8.45098495e-02,
	     1.37263656e-01, -4.29713458e-01,  8.92020285e-01, -3.05934489e-01,
	    -2.22954705e-01, -7.03002587e-02,  1.39186606e-01,  5.90508521e-01}}},


	 {{{-2.45080471e-01, -3.16227317e-01, -7.70127550e-02,  1.09206855e+00,
	     6.63129508e-01,  2.09362790e-01,  2.85565436e-01, -8.53264853e-02,
	     5.28096184e-02, -3.50677371e-01, -1.69334948e-01, -7.50600874e-01,
	    -2.70930469e-01, -2.17157364e-01, -6.95264488e-02, -9.02411640e-02,
	     2.29309410e-01, -1.37890890e-01, -8.74478836e-04, -3.31732392e-01,
	     3.54822487e-01, -5.77917278e-01,  1.48400292e-01, -2.56929189e-01,
	     9.92251858e-02,  2.27852166e-01,  3.94292444e-01, -6.00253165e-01}}},


	 {{{-5.33903614e-02, -2.65593007e-02, -1.29282251e-01,  4.02288049e-01,
	    -1.66988254e-01,  4.20208685e-02,  5.43773770e-02, -1.50459871e-01,
	     6.06752396e-01,  8.86680707e-02, -2.18630567e-01, -1.20180078e-01,
	     3.42227109e-02, -3.60530198e-01, -1.09608248e-01,  2.10556284e-01,
	     1.25251755e-01,  8.34473550e-01, -3.01880777e-01,  1.56221211e-01,
	    -3.31973910e-01,  5.66964746e-01, -1.76254362e-01, -3.08853298e-01,
	     1.05858326e-01,  6.95613801e-01,  6.21875636e-02, -2.11747631e-01}}},


	 {{{ 9.45883431e-03,  7.72840977e-02,  4.56753999e-01, -3.48820128e-02,
	     1.88559756e-01, -1.73041925e-01, -2.81196609e-02,  2.39185631e-01,
	    -1.71961114e-01, -4.90707420e-02, -1.54626638e-01, -2.39195421e-01,
	    -1.57351673e-01,  1.75932031e-02, -9.83529240e-02, -1.00934776e-02,
	     5.85301109e-02,  3.32247466e-03, -2.29671985e-01, -1.07235163e-01,
	     4.71053421e-02, -5.83417341e-02, -3.76416683e-01,  7.02506080e-02,
	     5.26413798e-01, -1.65614709e-02, -3.17662507e-02,  2.71030992e-01}}},


	 {{{-6.50339663e-01, -4.69193794e-02, -2.98384964e-01, -5.38829803e-01,
	    -4.47403193e-01,  4.31992635e-02, -6.70398995e-02, -4.94952090e-02,
